	ENST00000374761	ENST00000319928	ENST00000370812	ENST00000481579	ENST00000579153	ENST00000367041	ENST00000480676	ENST00000328257	ENST00000393051	ENST00000504148	ENST00000457474	ENST00000315580	ENST00000347691	ENST00000555304	ENST00000330836	ENST00000553286	ENST00000566326	ENST00000311008	ENST00000348335	ENST00000379774	ENST00000579004	ENST00000269221	ENST00000463087	ENST00000589699	ENST00000493059	ENST00000597279	ENST00000264716	ENST00000422803	ENST00000398107	ENST00000356421	ENST00000263895	ENST00000374114	ENST00000262605	ENST00000525817	ENST00000493076	ENST00000406644	ENST00000488442	ENST00000433992	ENST00000337959	ENST00000330884	ENST00000458646	ENST00000429888	ENST00000264634	ENST00000325599	ENST00000478867	ENST00000490337	ENST00000326448	ENST00000515749	ENST00000394854	ENST00000274459	ENST00000355472	ENST00000465796	ENST00000456573	ENST00000459703	ENST00000339898	ENST00000249364	ENST00000448878	ENST00000519857	ENST00000428870	ENST00000380062	ENST00000379858	ENST00000358077	ENST00000380550	ENST00000376441	ENST00000360134	ENST00000374571	ENST00000371113
rs4648845	-0.02067724627776104	-0.013034992082969725	0.022593325993326707	0.11156225909642688	0.0806370354084221	0.00043084328092219537	-0.016375479845890044	-0.004555698939087532	0.004757593212727678	0.05019381679213958	0.02453540432733552	0.19073973243811762	0.0034669764902339234	0.003453064758812449	0.02110421173563135	-0.03819442225571572	0.12732934588617648	-0.011820040799741608	0.1345963929012571	-0.15062062292843495	0.064344468104083	-0.00805318442824893	0.058665122278450305	0.1345484703524065	-0.12813859842524267	0.041151840325287195	-0.09880423249720184	0.012690621563614593	0.02328563194280527	-0.018971886162113597	-0.00060502102296191	0.012044710025221745	0.08432095909821874	0.12981812972685325	-0.020769770128747887	-0.025216873582506086	-0.24528042523632151	-0.2386365037900515	0.1684699677532318	0.09528869038324031	0.044312527180188056	-0.039961324013863216	0.10798308349518662	-0.14516908813602694	-0.021679057824143467	0.010430911676336812	-0.14228242063446359	-0.02471180866308179	0.0800045852454714	-0.03833945285515015	-0.004681894588466821	-0.04753521448350112	0.0422218056787591	0.022460821732104105	-0.08240253176536508	-0.07032226417740126	0.01577217319008805	-0.01306830174092828	0.1836206778511919	-0.024456343728594634	0.05022251569242762	0.14528514722744082	-0.010313779557570398	-0.14930984467133437	0.06938104995066217	0.1508853931557588	-0.04697452511708271
rs11586952	-0.13082461023941627	-0.28437059932565767	-0.20125482394794764	-0.07709760557470927	-0.10885014672485169	-0.2074677442523838	-0.3025050041876181	-0.26384253370715527	-0.025147197184483074	-0.047199349671691614	-0.34153197869170615	-0.05956060064883845	-0.3097804296901973	0.11404291309957328	-0.31582157424971613	-0.09765876692460643	-0.2451740015428968	0.21179488107702135	-0.12253890096662098	-0.2189901066600841	-0.16965582625662587	-0.3009346771803632	0.07416013487619491	-0.02424282798989175	0.03074307386407605	-0.29442226222225665	0.1362020337492643	-0.17761547855967746	-0.28695303038200876	-0.2819268413194642	-0.10160815783143101	-0.2400129303021296	-0.26859265995326825	-0.4086411338779623	-0.03313456710219955	-0.2552267163421494	-0.06449786310065128	-0.07083638183522262	-0.2065063717352419	-0.13384567728704688	0.1162147709183417	0.00724222043528951	-0.181121963361541	-0.13553627100222143	0.1602175285481953	-0.30568991608245466	0.11167220600275227	0.2582599274197513	-0.26821625861236303	-0.009216790186449275	-0.3181569162693354	-0.03828441267971632	0.03166748292531973	0.09301006327615256	0.10195012473394409	-0.28323801039515545	-0.19253841834226484	-0.0459715538215066	-0.24898188887169892	-0.18588494697420405	-0.24677176842323365	0.010728386292713723	-0.21011340130927347	-0.16405512017747176	-0.2698324605644034	-0.3278925828325507	-0.2334467451379733
rs6694545	0.03224740690532324	-0.17093753138835044	-0.009406417204014566	0.1140588568215966	0.010873000493144415	-0.07817757233568075	-0.06394689150870164	-0.11050950976390642	0.06210932510897339	-0.012905135629220594	-0.0675352591041769	0.05281582775607918	-0.16338397332082383	-0.05146975968346611	-0.08394422445639026	-0.07370414248673751	-0.14547869340660305	0.005450542455244593	-0.09749397258723128	-0.22287900666820884	-0.05006946721427021	-0.10461488936463087	0.12742920536510588	0.07552055923419264	0.04913179650179204	-0.0881642441659707	0.00974523658891	-0.12335820921914523	-0.14354465483016748	-0.1108978006885363	0.12520056284419676	-0.004117703294621754	-0.15721090581366212	-0.1871110094612989	-0.06465114424679004	-0.08966188477175224	-0.08265736697157783	-0.026668293604520447	-0.1386653310729169	-0.15065475344669618	0.15783854071354542	0.15293534582833226	-0.013010620253100432	-0.044948011166107325	0.012676354041423445	-0.054067252329934035	0.16808145041382877	0.041271576410311706	-0.16374628216123013	-0.003907940968879221	-0.1603947857820479	0.00316472993912829	0.0858475339746864	0.1756115657506754	0.11208521701521312	-0.04901219997428079	-0.20157558268955333	-0.05752584343477337	-0.09583208485981609	-0.036870964170410546	-0.13819034568212593	0.13405351298438406	-0.14110254394060195	-0.05793168034852748	-0.1002264276359734	-0.11557935957686924	-0.1663115158168825
rs2970610	0.06815517330040288	0.04843435083916686	0.22349709387590916	0.054992451582103585	0.10696381820920746	0.15183452953395496	0.1906405510969973	0.13161578924701517	-0.008926420585648577	-0.0965795689060737	0.19858147820452712	0.00155110411269444	0.15883748499518305	-0.02110527352555161	0.18591341488027294	0.053484284402937524	0.04405315313665116	-0.05531119212909275	-0.11390007179410137	0.08243402855888758	-0.08736264605086835	0.1647067158343062	0.07225726800190407	0.15075682630093692	0.06582152218916434	0.11726658081972131	-0.06132547368221081	0.03224630688809652	0.08667558020141022	0.09965089524750473	0.027590279910288076	0.20945986592147664	0.0798019973342511	0.06089045378250573	-0.16566398854125136	0.15647715496192513	0.030833877259189308	0.03441162939853767	-0.034559484602882884	-0.08588744220502635	0.030486993073991702	-0.020719910704688996	0.04009680745463712	0.07485007157519079	-0.15286313081794659	0.19294103795259646	0.07009119325294558	-0.03849449224881007	0.0746400540006263	-0.04952445484419767	0.15652328590782513	-0.04807303444894998	0.04073470965719271	0.09138379456859495	-0.1388944496729544	0.1560562614525965	0.042716933388392796	0.09968263940412256	0.13828812875664986	0.03505377061953675	0.1411694450518811	-0.055123859890233884	0.05861267987704502	0.19317691490738648	0.011810656996833755	0.04193777016600898	0.09776907591879362
rs12129719	0.013791449529181722	-0.02015773341268349	0.05021383876170263	-0.12455693524444142	0.17900986551078454	0.0567528712120261	0.08737078818415214	-0.050191681256723505	0.001498361793389115	-0.12267800761037427	0.00986933784802887	-0.011339885924173823	0.012991239502063557	-0.013340066622294597	0.010505269911018689	-0.05907121469083946	0.029773452113412712	-0.043795547871356304	-0.05134740508473396	0.00479291267463259	-0.16228703210075496	0.014932689128453228	-0.0451128925083086	-0.1790517183326454	0.12277738173887302	0.05988875084280852	0.07622156903976621	-0.08381151527496956	-0.006153591030843426	-0.020579677060727757	0.13130577060378823	-0.04996453557659611	0.07605286941369599	0.003854468692610292	-0.07410245818960683	0.017232721559613466	0.04625331913029715	0.010225681409853093	-0.054177486026137193	-0.10699491682600126	-0.10523378186224616	-0.07490540467228686	-0.04357044276824578	0.06300042445189734	-0.02969195439972377	-0.009645876027288263	-0.010037377172697814	-0.027148089747055702	-0.007316098190192297	-0.11183501005644836	0.01040778454459106	-0.08936854216505702	0.057564599161842006	-0.13214484111803182	-0.06292318882073522	-0.00029274306775886453	-0.06535004923086221	-0.20196916679421079	0.10459550183390538	-0.05642703714791701	0.19712300376976805	-0.15934432115700992	-0.11543704727355104	0.03518594156767814	0.0027203315539454545	-0.03655539545326519	-0.026210649772347064
rs12129573	0.24351373433415954	0.07293262175606477	0.16942942433814237	0.11448363143892133	0.009035630454515223	0.05869558151693247	0.1567861242028073	0.1522365817303782	0.00021817844020058385	0.09625615609660447	0.10429712758202621	-0.07790240487464306	0.10219208055266021	-0.05467533529966446	0.11023509331481102	-0.05411524770747545	0.0203870815463217	-0.11812054593149905	-0.08541298166844755	0.14065794804398793	0.06767912072714753	0.12710513768788173	0.14841956384773627	0.05330486362384711	-0.05784276729552537	0.2984486551342176	0.09694899646391564	0.04045109656704313	0.12358788435593394	0.1284365329087761	0.11844039590900293	0.12281852486185994	0.025106400287113348	-0.04375833393506849	0.13391142859695024	0.08275056956637945	0.16209609973371716	0.034476975515821864	-0.12201563763244065	-0.03564856095051662	0.03901636601173078	0.10162302426192749	0.0747015288370293	0.12688498105788776	-0.19597020045212346	0.19747611511241459	0.12626771614367027	-0.0767700039481936	0.051202311621567895	0.07198359389185631	0.18988633148315162	0.015626670826354674	0.01627100910390272	0.009056642698910726	-0.015370737949693418	0.17924895154823228	-0.02063116901302827	-0.09041526582477566	0.1863321724902557	0.11410845388909982	0.08600137711732561	0.012716025474080747	0.10447245604599911	0.19217307636759678	0.058957007953674444	0.09781230534438767	0.0864607819311516
rs17517490	-0.2086418179538312	-0.5008072182427151	-0.48281674868537816	-0.19057887535808524	0.025927361005821388	-0.49725135140382787	-0.42040092319151584	-0.4946307525328266	-0.14767117956554354	-0.010805202008654783	-0.506835825853826	0.036820892257042485	-0.43677746003437	0.1188521647481632	-0.4888022445416005	-0.13184840605945997	-0.25990581434308374	0.48685494564139753	-0.14030145122432264	-0.4738754772423642	-0.27232588445127626	-0.3737108340770714	-0.020228714177387638	-0.013263552067012978	0.0772575971297817	-0.5348059492801449	0.05238955723050769	-0.23102942831681933	-0.3609669915357818	-0.5644286825575028	-0.20873750677827682	-0.4823707424898952	-0.245523552921847	-0.16363611702133626	-0.15855123174281313	-0.4614409094686903	-0.037404629410901884	0.043977729980304754	-0.1724641666194689	-0.14421283555569617	-0.01927341643290372	0.05537047023197399	-0.14137437431021738	-0.47306819416563817	0.14793376777609088	-0.45950519224088293	-0.06660866341767754	0.5195887284215507	-0.38100986185944086	-0.02789902756198351	-0.5215323912999447	-0.1058563895280283	0.0027640097171117268	0.026565113415398717	0.061416755922184055	-0.5171098427577486	-0.18357662434705138	-0.11343168376710798	-0.24842981562217764	-0.47458378432924503	-0.35808914058209157	0.0030087342618061058	-0.2726245134550114	-0.5282998948722278	-0.22006185773361664	-0.40651840802799905	-0.37508157370915307
rs6680011	-0.21575875228800062	0.08304350632164612	0.08806814162722061	-0.05071061839371396	-0.059585149925422895	0.1594043651663331	0.0796535796880726	0.07663027551385976	0.005991123582652174	0.07774919677685281	0.11145560010904323	-0.12936966997425328	0.10987206943660145	0.19245392509424933	0.12286702660570399	0.08927250274948917	0.05390792093213024	-0.022241150296443357	-0.027942352038753115	0.09619596080396117	0.005485071158372373	0.12807362445633977	-0.01215655011381499	-0.08408148403118648	0.07979008266609432	-0.045218872061386396	0.09376426794493423	0.07117337901028653	0.06588695624158827	0.09496154344614217	-0.18463646737974998	-0.004567317317163558	0.04992415368518269	0.0791415071725176	0.113323558510146	0.11850634089571822	-0.008361637232325381	-0.05002399323558472	-0.016121285069105807	-0.039564474901071435	-0.014021682973244003	-0.03934125823385085	-0.026008326533433077	0.03943601166991719	0.15915147671052765	0.05600828150464081	0.044452168085897095	0.12017829482793452	0.10713853875773413	0.03331406321022311	0.11581044741400083	-0.11903905973018714	0.03634649980851703	-0.01934237016536849	-0.053463990607931215	0.10446651763282055	0.11379771482788367	0.043691907598258826	0.11060984628231414	0.060828870109721773	0.07707813441830193	-0.08875061692463529	0.23397024951139875	0.06994815270624269	0.06109703143853199	0.036661407909264816	0.17745674034923098
rs11165867	0.08605705560456137	0.021138662364869873	0.12453640568170157	-0.030010207673295826	0.09695924732072238	0.050494799720871855	0.011389322883459055	0.16459584855717502	0.03121236911862229	-0.14171573031519763	0.004703982608664709	0.09507242509182831	0.08176727105608779	-0.10080846187571936	0.10179183951433135	0.23141775614064852	-0.05401038810400034	-0.11839514386388134	0.07370699966861313	0.14259477580581195	0.07585028384092038	0.07857431254516041	-0.030131207083349577	0.022877914140247663	-0.0730532990289604	0.15163290164313015	-0.06805933172036975	0.01489077746913704	0.06834025388179296	-0.009946996983900334	0.023322773868807493	0.08167120130876022	-0.04276573312296649	0.01685269914785457	0.014479973821793746	0.0072296582285834325	0.06093730441798664	0.028283269383040755	0.0768893299849729	0.04893467918549558	-0.02159766151617141	0.05341701167261469	-0.02510103264464858	0.14521298590460588	-0.020703410118346876	0.05507541140878898	0.11945407444573594	-0.15928470934732072	0.03672887327462317	-0.07927250771602681	0.0018641219751861454	-0.013488594132968395	-0.03818853280196935	0.032699174793284595	-0.047705885659477566	0.057434661119441614	0.11014849107566332	0.06426952748541144	0.007946274042184795	0.04950650851720275	0.04667986264544826	-0.11633008383610417	-0.022963380894762627	0.1289057548601998	-0.03762074966788325	0.022656219852250203	-0.021580179482087024
rs2660304	0.0335547369463484	0.07280970825662751	-0.04458699808648675	-0.026004020618480027	-0.07031239603093631	0.10255538826340913	-0.09578685521277787	0.06308935171185973	-0.009885631809834459	-0.01169064787799815	-0.016080331441967195	0.1772375715805154	0.0016685409508174801	-0.1301392913625422	-0.07018326007094286	-0.02396262437719179	0.1273320591006846	0.017828192913852896	0.2207013367016673	0.12156908317728209	0.13283407090165866	0.036125251443132174	0.04214453353189908	-0.09883175727677085	-0.044929224969563426	0.0954268417015981	-0.10187126371214644	0.22256069643185153	0.10479930478835872	0.0168523486005629	-0.0015758092961682174	-0.02330343111047359	0.06278976805481568	0.04302902554403127	0.05165777284972349	0.03925573903515006	0.09688771760696495	0.12134688377782915	0.18920059162706152	0.2314430693442503	-0.08933731859943086	-0.12027386800756827	-0.00021840822308931315	0.031247069437134012	-0.1501366257503069	-0.09866715209757985	-0.07569329616881516	-0.12430090734425732	0.1190873969443595	-0.037005415628011996	0.04133897479929155	-0.012142293845874329	-0.09404696180720068	-0.11507666751901079	-0.0629554739870405	-0.025648620788722487	0.18053234573419466	0.12030158695191497	-0.030240733764687142	-0.00012385266352886776	0.08158119597585431	-0.0827687022279345	0.030376276707728998	-0.047905035698636175	0.07940517506618584	0.07230932007476108	0.15501952507875777
rs140505938	-0.05367400162833421	-0.03127081434004746	-0.13792536770177158	-0.05530430082770752	-0.46631873329446427	-0.110421408453947	-0.19571334489993705	-0.07647900875902014	-0.026256731717986998	0.008919148075626163	-0.14452970815009175	0.0978925302137514	-0.11595374962527259	-0.0019112373225913372	-0.14219588405984843	0.061812922551673866	-0.09415261878304997	0.08458580428147817	-0.07575810142647443	-0.16218048706943602	-0.06784082462345872	-0.07698720597744907	0.050455626507723006	0.0874243625156948	0.0673367800435446	-0.08226873580380611	0.04370619504683407	-0.10465125360255424	-0.028823808059183588	-0.08711563373693859	-0.03923962142447302	-0.1119252596684709	-0.10187786809321837	-0.15262632806439896	0.08238532451244544	-0.025343020175842227	0.09625575731575638	0.061768222379101664	-0.07110816890773347	-0.06302457885363744	-0.019929687771634615	0.14064676363720696	-0.030869258654431856	-0.02542587099388801	0.0944508058875196	-0.14422709347843501	0.0642369196908503	0.036348612686663444	-0.08348224745914441	0.080267557496829	-0.07901083462247684	0.15040082663394005	-0.10027239027255137	0.0735310989686512	0.015631683472042017	-0.0720763644136523	-0.09857083539025603	-0.043186349807215994	-0.1529600241084602	-0.06258988587992852	-0.14431430113448313	0.018874590335294445	-0.14764931681106694	-0.12358702910765487	-0.020949220708729982	-0.11406184665361363	-0.08733424444780094
rs12239340	-0.11724705392345311	0.05341796472893789	0.08561144620753021	0.06812352069034384	-0.05150998191995894	0.10964267465263963	0.06530650651110871	0.008510014157344	-0.15503676061892574	-0.24743108529485733	0.07514919532056626	-0.08214077904846923	0.01690201192491253	0.05416914053867683	0.0448779288280723	-0.08100205595694523	-0.0715639965391184	-0.004269288331433902	-0.07430988078083055	0.032768606500028295	0.004522454676742644	0.027801449954742274	-0.016376880715120806	0.00452958661355861	-0.08887038639706597	0.060621120270154316	0.1332269230833535	-0.09949877217347003	-0.02922763342499547	0.07826487493262557	-0.042629994823108294	0.03987151326762814	0.009348323811583672	0.14798321770389414	0.055739480654720154	0.029349266254626343	-0.07603990318886358	-0.06338537904033688	-0.05484823895063549	-0.013143283806897403	0.006609664122017225	-0.21551205271029347	-0.15635474248800105	0.16979096509716646	-0.006613465402877942	0.023174347692457496	0.013132372558290039	-0.07874797596188852	0.008050301049309245	-0.2703334960115737	0.08840574863120729	-0.032162596965929276	0.10757304916750501	-0.04677759351589338	-0.22177259955489456	0.07044275213174703	-0.032268063646827626	0.054900601703182304	0.10784593607622367	0.18662425644750932	0.027856070275632555	-0.050905538124102284	0.07446909351663243	0.1446034156896942	0.033265710638439916	0.0651420952591667	0.05116860920123085
rs6701877	-0.03475878131155171	-0.1040385669599896	-0.048943423368479115	0.11109724392943096	-0.09027858030243294	-0.0938678445890107	-0.15079517408041443	-0.07913850523407173	0.07916502529399563	0.07291070834318748	-0.07006888000822496	-0.03957052807683552	-0.07780518313514091	-0.01805679768994843	-0.10262544827754976	-0.060762734044273244	-0.028679349991546248	0.08475724067265669	-0.04002046088275583	0.003458698425573471	0.06704130305474208	-0.027107518378277115	-0.014061555658196294	0.029592929323760394	0.12502153086353404	-0.09238821287092895	-0.015560228536396228	-0.019570806394913893	0.015758064255982175	-0.09134414793807741	-0.1865458419638023	0.014314803807265068	-0.012898405618543626	0.04913471453441209	-0.10387793183847556	-0.09186089437232335	-0.026185038256645258	0.0467575720231555	0.0011307870658848716	-0.010382229834358481	0.08412978825838659	-0.05782468281706431	-0.08994703740418306	-0.0666553474569989	0.06599767572409476	-0.09574957812489397	-0.007936471583362123	0.02462663245699829	-0.04723450823374313	0.0824395371945845	-0.10858738515441962	-0.01943706723745658	-0.08492809166381592	0.0634985130519298	-0.025110336612961977	-0.16558712032153133	-0.016979496623537763	0.09477391180061179	-0.13183418596858007	-0.02849902818468349	-0.08867813083614504	0.03866571542279749	0.023562211905240417	-0.1268733038242835	-0.01435202114377824	-0.031898322661343945	0.010600569580769083
rs4650963	0.09133754182734498	-0.04921152975943795	0.09003390688982212	0.06619897341404071	-0.007347679207898843	0.06912734469477647	-0.06549426018823877	0.04917331683422606	0.10678133360675643	-0.1360452863153847	0.058213083458100695	-0.11909060279207846	0.0170385240260099	-0.10170249880541839	0.036128479830011065	0.0360500178762328	-0.05275480410991503	0.029378049764114726	0.05888567519591682	0.12455028413867024	-0.035265972048759586	0.04369576896617176	-0.04029462904821694	0.014124334375847453	-0.08477767790527503	0.1253396856888176	-0.02880437386780228	0.011732926786433853	0.009366109460322791	-0.058404509150226935	-0.035447531919937936	0.08748485051208787	-0.06304437126348313	-0.025555799998258022	-0.15460159930885678	-0.014885655146635769	0.06447991112385124	0.02565865704237224	-0.02133409654673496	-0.02019292800000433	-0.010543087711545688	0.11441199739855534	-0.022416190572851467	-0.119284560293066	-0.08343703561058016	0.045064009179104254	0.07069461163124202	-0.01339510711465118	-0.012665334620650578	-0.041337066990584766	-0.0039501447571701105	0.057773665874610816	-0.05322502039180634	0.07735596865917037	-0.060754004157100236	0.0797135923932625	0.05952413937606206	0.20448974221817165	-0.13867290631227971	-0.09718648443893786	-0.08468926433051202	-0.040943803730268784	0.03827262910632603	-0.0165150019020922	-0.04798236098647314	-0.15056171934641147	0.017620062299022427
rs28374258	0.013725219839389742	0.08658849103265825	0.02519897585857556	0.020441376089986817	-0.1996428203070463	-0.016933448450787918	-0.05114175963347845	-0.04621587307841457	0.036739579939201725	0.040418806011807126	-0.05562963595192707	-0.12052400826984937	-0.06840641077939195	-0.07765079694457823	-0.05866794230618343	0.008036460941214211	-0.09203588506197698	-0.02924383203971236	-0.04823697233344601	-0.015178168134720303	-0.0682698874492761	-0.11568118201712176	0.03052961615261337	-0.026812035244346853	0.02889998810325931	-0.05965598364334887	0.046327451155702096	-0.010225103369294284	-0.03921595088264986	0.08528148443710509	0.11797969835993613	-0.031191551074382453	-0.11020313841698527	0.040521646735785385	0.007010936037738187	-0.010587731217080482	-0.13132051462879102	-0.0857174107720845	-0.026048039344298644	-0.009450653870034914	0.03207305093165712	0.02283738069517864	-0.04671400354034318	0.06168592595811099	-0.0038909216923969777	-0.03428912170889567	0.06948497779872172	-0.16026951982875795	-0.04421699508300937	-0.003952214719206869	-0.0328964982300366	0.179406838600532	-0.07877041009299085	0.05099389708812081	0.03183742092945535	0.026283067236948725	-0.04052810764495629	0.1188170271979277	-0.19427745557261825	0.116157055151115	-0.14816490352605854	0.12588551509767937	0.03579023881892138	-0.04581007057880407	-0.09241227191306405	-0.077691594037372	-0.02868465879968464
rs6678676	0.03329602195426369	0.0780251281983226	0.11357659177358286	0.008608444409296784	-0.07396794015151441	0.046358914214870116	0.11505898563120856	0.0903937787000792	0.0016020084065163107	0.11562363480851721	0.03500754654937984	-0.10264630593028462	0.059947927799191295	0.05865468865851922	0.11527347799473929	0.00898922047452305	-0.04419441005615223	-0.2795627829809978	-0.06512937729596935	-0.02048472265095362	0.024809996246597632	-0.03914936002837042	-0.11867293295213463	0.00885542943097446	0.12115620681689118	-0.025578375613320443	-0.0437173940595462	-0.03262706894573699	0.004450331620689262	0.1258156425641004	0.12433375855518744	0.05944259667725914	-0.011947719206880434	-0.0028420572670177086	-0.002584473381461423	0.09918523588395	-0.08955369474665881	-0.07463813345290385	0.0059899722156251155	-0.06925657639019604	0.01769824689379907	0.07969498144874931	0.08105401545304448	0.2271210558371181	0.1748204828933765	0.16715058003354852	0.07183731333982682	-0.0788056495123424	0.0023449536631603117	0.04951701021155164	0.08807780221022131	0.06497449616571349	-0.0482834252416781	0.05945507320598871	0.13887345322337014	0.03871921890990947	-0.06858031842353049	-0.14512200552711302	0.09436821209483007	0.22619299549453628	0.10282542739955947	0.1227942868777799	0.00836256019329401	0.1508443582829879	-0.007654199259175634	0.08245727013731584	-0.02155289490245604
rs72769124	0.0478701385164637	0.0754902368877819	0.008880477733917595	-0.02252937704182198	0.06435652139262907	-0.016080331441967195	0.09602815130090027	-0.04793480255488619	-0.03562216845818902	0.08106913274444298	0.019272829139655216	0.0563180754599197	0.08389443790923735	0.06705586517401549	0.053385700175355044	0.0022699059898977124	-0.004202120252950972	-0.06750120304575884	-0.023979149675611523	0.09794171769961646	-0.09211065752765367	0.08848242018121506	0.02220884951355127	0.10215209705553976	-0.002718377545362598	0.13851582377624572	0.08509181390957399	-0.07346265182999596	0.048217972441198124	-0.027567560216071832	0.06068962036408405	0.04187029922718893	0.024428843480594174	0.03724560784407978	0.03738115605086691	0.04437116123491533	0.06384230416842179	0.09422643880655954	-0.04767221170569147	-0.07867339560661121	-0.012595162596356384	0.005145456863482264	-0.03934717909129353	0.030464894813529795	-0.15490750766041703	0.038598289645282426	0.026218549063746262	0.042564464143534354	0.00567015839390574	0.05673839923009845	0.10074433802349733	-0.05808818189840104	0.06702854382539479	0.03537164851691101	0.06758832074211574	0.059934838436873396	-0.1273052333247453	-0.1019341332955193	0.07238304814122298	0.000558144502673717	0.10168272927924452	0.023265697917146666	-0.09377880799984942	0.06085808312552933	0.01755136875212511	0.05516833042804926	-0.029392200702432276
rs14403	0.02090393785252318	0.15067559662895522	0.012600497730185442	0.08878862547392949	-0.022274045506768723	0.03243044121017795	0.006600218564224179	0.0981546465888573	-0.04101757030253531	-0.07318863965941752	0.11364642691766144	-0.025589962642437847	0.08880019632333777	-0.07774129515645825	0.06750783269836873	-0.018961322253586994	0.11979352415877376	-0.08092637071454961	0.2558511560153364	0.02637956955424641	0.13609852888471954	0.10059546650400447	0.08603224620451295	0.10358328070936841	-0.11332183176065795	0.08284109245222705	-0.05558033544791573	0.05139364704709919	0.15303532900854622	0.06487350959398336	-0.04891454276031359	0.08279547541061556	0.13974842986295527	0.08973698720880369	0.15970247167499865	0.07719828931635951	-0.07084257653376862	-0.08221323958184487	0.23331463299759356	0.2187132801178295	0.10485652440098227	0.044059600943122265	0.13656689502496305	0.1431128586862226	-0.051024880867039484	-0.04630734898805911	0.10437068388804362	-0.10097731191413174	0.175937360841383	-0.08744862558143139	0.1646493783947394	0.18961950433271157	-0.10455079616029958	0.1315420838470992	-0.1284892867116323	0.061024600811579024	0.09984070818160175	0.08711112221074689	0.03975409702095179	0.06423721341848003	-0.009091048390760716	0.0037893837758546443	0.11796418268056684	0.05948059680948087	0.19314253559143535	0.11339513064393372	0.046004258507043747
rs7893279	0.18792331477439225	0.023285038652338795	0.035204617068561324	0.015711658988272367	0.06936315091931802	0.011125041156833687	0.043065971225847696	0.07465846091136127	0.02673470150457704	0.05295219850331982	0.04748620001946291	0.003329242318735814	0.07565000600624293	-0.10865206417761152	0.03424156481534511	-0.09181326219830853	0.10619548686460392	-0.12102562585353223	0.15602945326075496	0.10045125763479214	0.17906154871312827	0.06949309374434728	-0.07828207926733499	0.0828754915892322	0.0628904753301926	-0.003615641612660989	-0.20635409655786058	0.06061783197343995	0.1257914842696505	0.024201068586664366	0.08711112221074689	0.10905899661204353	0.10140221419070093	-0.022712015986166914	-0.1607549595453119	-0.048815087527899946	-0.013865821271570206	-0.016038214392354894	0.13958413388513066	0.17476507888824466	0.012296346712268083	-0.02159766151617141	0.03905674622814468	0.09951264670235536	-0.1650650608947642	0.10100049762377078	0.01658214956124305	-0.03761912486433592	0.10323660777690609	-0.024791405154196127	0.04494749290088638	-0.0032186465445031417	-0.048688964002469304	0.03140638316576875	0.03459957759510673	0.0008636493147176196	0.01080901985465616	0.08243523354750978	0.09120137286027832	0.015168151218589448	0.06418405945508328	0.0591252403958939	0.017140815970242675	0.09001957809004177	0.07107806019746205	0.06505915529958334	0.04879536223063746
rs10887623	0.0360125343073311	-0.09294991415357667	-0.13484706646873876	-0.05130534162599016	0.01716946153428095	-0.09170329052736602	-0.08056161518055258	-0.049025454898155255	-0.06602715761385955	0.0017536901053874746	-0.10457083355915683	-0.0060125391818266795	-0.1029339090692907	-0.008119735034122137	-0.0907998847768255	-0.04361418186950925	-0.0018351635189925394	0.037326227976272934	0.10273043555792517	-0.04462812555172414	0.08113285342820226	-0.09287233669689612	-0.03107324744667651	0.03104148955198742	0.0003312318156789438	-0.09445920624059635	-0.06040939865266978	-0.012248933234672356	-0.08285872271316781	-0.10718768507898806	-0.006945258086499596	0.013460836899957395	-0.02736399984428591	-0.019733982295070743	-0.011749954886926152	-0.1377048379899478	-0.16085803274202615	-0.14988241158414875	0.08778386568197633	0.09882251288703763	-0.049401792963738804	0.05333969718618508	-0.02946913601467552	-0.06003474690737386	-0.06937936702310231	-0.12377029797153676	-0.012082142579020938	0.07352412562610684	0.00396325455079612	-0.040106415946079624	-0.08609687090903491	0.04433293080652915	-0.013088381218195754	0.0017022097386085381	0.009811675902393594	-0.11446934914690003	-0.039023787352593264	-0.03380941524671905	0.054002461569686494	-0.10271407622220552	-0.1036346367712251	-0.00598076131341053	-0.049236080767673836	-0.07930223481783198	-0.03661449260228949	-0.04959413117386922	-0.08085446993958863
rs12416331	0.029835226827185365	-0.03469397647690723	0.05434312061229772	-0.01934718676298399	-0.07247048441518378	-0.03107434261299124	0.0131368995430992	0.026437652651090774	-0.07874166202001781	-0.015831178239469057	-0.04777180527586296	-0.09487278103960489	0.001102521753627809	-0.050059197819883515	0.03326841028415972	0.05349586257430579	-0.15466417885648592	-0.08107083145428746	-0.09033401456015129	-0.00889813891739071	-0.10337058639398568	-0.03453715875649704	-0.04597468070970245	0.009743041290459133	-0.01648242388492582	-0.051671508874253036	0.0074733203960927865	-0.0043498010380103695	-0.06951821068786121	0.024128982968757446	0.1561869221656118	0.09435279526458933	-0.1302955827250598	-0.010424898558273438	-0.07944631230829893	-0.051570401171677195	-0.014579563778573857	0.014354579922505585	-0.08143499825533704	-0.08597319305859688	-0.0003666185367692053	0.046673061401661955	-0.1099522255122312	0.08281759020297272	-0.06293845785883091	0.04507891918061121	-0.004155195949813258	-0.12214391727908379	-0.06603490146469705	0.018074720722895888	-0.010955500530917414	0.05222731202847102	0.036426305447747526	0.02337523001272153	0.055793949078339476	0.05327724716819167	-0.036895381331038264	-0.04094329596284504	-0.091431770964924	0.15571720239525533	-0.058848116236554365	0.07116468224946684	-0.0394723113753996	0.05515180735079646	-0.10732459255300196	-0.07965726663510309	-0.0486007455782448
rs4910038	0.0017856357886135747	-0.3360435798242066	-0.23644160234709774	-0.08399525952447057	0.0753703187398826	-0.3122317145606795	-0.32325391163288797	-0.31571125219043816	-0.10089621275296441	-0.21207246344824027	-0.34160520337294653	0.017084581993810122	-0.3991470154223695	-0.09228765386858129	-0.39340668855382444	-0.16985135146200112	-0.2515635613339479	0.29236242634799525	-0.16263514483281002	-0.24493125260222887	-0.18737999092728563	-0.3132903573040587	0.08590383780182857	-0.10106102168998243	0.010385467490526018	-0.1063982476162298	0.09482705992351069	-0.20772400406537553	-0.2717641313787769	-0.3716628049887409	-0.034478578565127635	-0.27940263895540024	-0.22941317426283658	-0.0577153826991241	-0.2229200899619158	-0.41579507351068673	-0.005106332765973508	0.05762786165829673	-0.19868916383609453	-0.11892222575934795	0.009723168316465417	0.07136658128004988	-0.15465702598435832	-0.32447610437248536	-0.06368119138179622	-0.32411228004491205	0.05610773378840765	0.15990155543609674	-0.36299014403366736	-0.22672378789268072	-0.42918537702170045	0.1589503444562534	-0.13316848275592996	-0.02212651272937063	-0.06467972958915502	-0.29452526503331683	-0.21843254046362096	0.04543646882202635	-0.3118256619338405	-0.35563838097595574	-0.30734036317746166	-0.03004996923626561	-0.26674085795228775	-0.3097909736091304	-0.2765356052082712	-0.36617947721274235	-0.32548171836655343
rs1899543	-0.046116489239193564	-0.16518033340347782	-0.037366673711040604	-0.025699761101012814	0.13601937310215775	-0.10962176920436603	-0.0026787229309385317	-0.07476848496917435	-0.10664514291154127	-0.027692599659766993	-0.09910605390313046	-0.12141479443368951	-0.1397932490328551	-0.10658549227338922	-0.07439864174899885	-0.01195351278588678	-0.19275084160107311	0.13319852158659015	-0.13662617167632052	-0.019502756416470046	-0.14698359117580587	-0.08949168995112973	0.09117160094005049	-0.08159451248855364	-0.0521093813920999	-0.03359687859309011	0.09088323567778418	-0.07667411508024163	-0.1371978047578046	-0.1478042188067358	0.07730480435401708	-0.09189943575299198	-0.13616324236110308	0.05524339530852697	-0.04860603476915805	-0.09721127709530807	0.03232857655392272	0.02346437554967519	-0.17122170359665378	-0.12402489656079321	-0.006473631774551689	-0.07566631860103343	-0.19353949529348705	-0.050591368324679246	-0.014538492477514833	-0.11698953652373495	0.03828554092737058	-0.006679010494263999	-0.17180501370256582	-0.062140403346391	-0.0977443251929805	-0.0077794138955078656	-0.035339841643751924	-0.01267913792406911	-0.00339960305709595	-0.042896309620197956	-0.07397144037635497	-0.014489396903920397	-0.054836422012529425	-0.08411035875079662	-0.05559939087884577	-0.1842744073101546	-0.12425022100996795	-0.07196717509074989	-0.14010275108039344	-0.09601979909944681	-0.1642359103947083
rs1765142	-0.16207728642230967	-0.021199194163135402	-0.07546346976583984	0.03920839700485687	-0.11710609741906136	-0.02978289913435794	-0.18019936936006772	-0.0067377620712158965	-0.00824142877636062	0.005276299297152089	-0.08461975122363896	-0.04863909587966368	-0.09231607389748012	0.016992821005218327	-0.0579539872796584	0.03619504425871001	-0.10938375526365011	0.046714134360827844	-0.022993376037166287	-0.007686250992053899	-0.04658845969981929	-0.08267065174688086	-0.0722356387529131	-0.007195890767275191	-0.0022776060631244403	-0.04671060224113393	0.0440737868847309	-0.018382449207243398	-0.08034006663543572	-0.08568201725500484	-0.04356092439608747	-0.04142637164609334	-0.10729678165741124	0.03279481665003553	-0.0042895312138746845	-0.01632224964563626	0.09353620087316354	0.06301424721865921	-0.0011186076906683595	0.001291878498510558	-0.04774496077581846	-0.04427650335120223	-0.14386145187061716	-0.036643984659135924	0.019822532532825687	-0.0599578879154339	-0.12042428021203863	-0.04559086317697933	-0.04735144733711665	0.019858875229765354	-0.11349297541024571	-0.07375748836109075	0.1088736344826285	-0.05864651148754828	-0.007433205915301153	-0.09035679510863813	-0.0007797754256442674	-0.0046437013608463295	-0.14861377192729017	0.005331884676862144	-0.012569879281102259	0.06399511173477689	-0.10077797061655391	-0.05990212037564964	-0.17014538854072378	-0.04458066163367467	-0.06897995004869614
rs7951870	-0.12134578008967649	0.0384700248449172	-0.0055414697159824515	0.051825377815452725	-0.2152016097348937	0.037733389886179323	-0.047871718616234446	-0.0586349514558038	-0.0575850305092198	-0.09495368477524882	-0.023531338317481533	-0.010698656933648593	0.028271220449583582	0.2288819591125952	-0.037203686781051196	-0.07203489798019626	-0.003520784602683065	0.06329829514706109	-0.01610249967308094	0.008944890705008124	0.011282348697418237	-0.039558043590837665	0.020978114785116898	0.10556420758576861	0.0499911956029835	-0.06888178595591936	0.03112168237606132	-0.02286013576324661	-0.058534052219113786	0.06418802323233617	-0.2527863587630778	0.0005345914049542086	-0.014708497848543818	-0.13343868591321234	0.13135803105264984	0.05146545554958035	-0.1249836861859005	-0.10087389801252267	-0.010967534936999142	0.018454547959866365	0.05671265929500441	0.03602705537251066	0.03743709661062022	0.08348850916183782	0.17758380833363663	-0.0068359179506699225	0.007887575965399962	0.07941788242557375	0.01002882415511252	-0.032685094813877665	0.022854565382060217	-0.15631568832081694	0.20277021172385906	0.052429332326908606	-0.03284749001394325	-0.06952510344460969	0.019289391112742235	-0.022900671718604382	-0.010879479839969852	0.09958785732424706	-0.05965442179477966	0.1148997888847306	0.04085648618889006	0.053156498952695835	-0.008210744443461681	-0.016344778421659344	0.06774205600744827
rs11040267	0.0002879176165758769	-0.32270982477586135	-0.257977468948542	-0.005630790915325932	-0.08395698078380523	-0.3682995102956561	-0.32206717554768355	-0.24655001471318191	-0.17711647869429253	0.00826946075966631	-0.4283359468424584	0.016886469693127595	-0.37388140933700137	0.0049159036185501635	-0.3190764879335377	-0.04966769472427621	-0.39972971575700994	0.1343702648329608	-0.17724956380130757	-0.2500655792458803	-0.16896951937151952	-0.32306531496873964	0.012578345605775856	0.010493473898994781	-0.028607328614711495	-0.17995270716140738	0.16152590911846584	-0.207549654519385	-0.3385392810235541	-0.3822621511442768	0.0777664835857365	-0.08514467975996125	-0.4039328532088016	-0.12604735758977317	-0.05541335789633735	-0.33483659727199167	-0.04056168227765966	-0.00979041476299432	-0.1896511341573699	-0.1354335308052784	0.03241527514988542	0.026833620156780816	-0.2942379870186826	-0.1034007511743382	-0.02762538456946594	-0.3415158415302742	0.006301452043476519	0.11067196913546935	-0.28851785238050054	0.005768351443900667	-0.3211970083489237	-0.022605761787613612	0.11976789379122553	0.04833767998624291	0.0599402447644717	-0.2480155232057742	-0.25596219014250693	-0.24543002568029465	-0.18997930532970314	-0.06340785217310693	-0.24456456847992267	0.08812776121037169	-0.30206036913873313	-0.25755353174114265	-0.31706747786944944	-0.2847322307264774	-0.3636715951413017
rs17581700	-0.037488804078295385	-0.13777340130584537	-0.1008259205134134	0.04722243809367162	-0.004682699876087708	-0.10818061418228442	-0.20198452439595935	-0.052956135318205894	-0.08169922662487042	-0.21331258028784517	-0.21858054075933547	0.0015403028121647932	-0.26058469246863214	0.0022565745576702437	-0.1562366830512608	-0.12743343236301416	-0.21857718870730947	0.15687712106953974	-0.10518139555255603	-0.14987847595421042	-0.09244436054130685	-0.1775367174399092	0.016651758961886906	0.07918404375551862	-0.22424161658136701	-0.01693625329330103	0.13307779285883167	-0.11874786788151037	-0.16692636820356355	-0.2027921063622884	0.042673267249394346	-0.006416159241335199	-0.11654424737266052	-0.00440512671052874	-0.01664475087010799	-0.18312843135075998	-0.07226902471586139	-0.03811624319470167	-0.10838465739027424	-0.044819913765125084	0.06832190013479934	-0.17234064785540623	-0.23727199825392295	-0.027901193637746395	-0.054004511496747225	-0.20277180367120998	0.008508744898368245	0.007962073490639958	-0.1450637083552157	-0.2124995191062702	-0.18340304320560308	0.046878782004632566	-0.07178859379570254	0.0013540410680265933	-0.14914472960647351	-0.07906015129987545	-0.09330138249390012	0.0840638133182401	-0.06864143451038568	-0.041082471294839926	-0.12626771614367027	-0.01284828082719454	-0.16996401393406568	-0.06371161359301139	-0.15735072954947357	-0.07874132971763555	-0.19545333166014267
rs295634	-0.018765583232484815	-0.08243058581273494	-0.04743168244986053	0.061279927188685815	-0.04915806058812514	-0.06797883989960007	-0.14842126827110178	-0.014380866206471467	-0.06480962163886703	-0.2997774083615686	-0.17366194579704455	-0.0003713291107897888	-0.1973392748703592	0.01883868193385923	-0.10310609328486382	-0.1286628769930025	-0.188897596712474	0.12459830249113178	-0.12331730762835999	-0.09283299732517271	-0.09618560023694196	-0.13967539478882138	0.0016436055092861035	0.0891765612200099	-0.17379144050002499	0.06135536730568219	0.09550568501931576	-0.11600362697555548	-0.10745420304248028	-0.1566780027150973	0.02631982088305164	0.028433199043271316	-0.07840838396081638	0.010680264625312913	-0.02581174810176643	-0.13278616069504792	-0.04605560755684735	-0.014294102685450963	-0.10731273752088814	-0.05921056363365204	0.05810938929131087	-0.06937447136678808	-0.17370696316492074	-0.013134578008426477	-0.021983885167466074	-0.11869710541459709	0.013625772557614026	-0.02245158726267482	-0.12497932086286496	-0.2827120325963236	-0.15789973732979834	0.07050126583140938	-0.07274011534829161	-0.0009029439016961883	-0.2146081364583827	-0.028955415286156066	-0.08028778755201989	0.12325883827617762	-0.0709621976664012	-0.0186333787804603	-0.08210010688580338	0.007569808514106755	-0.17147084384706113	-0.01705255137742192	-0.12932241448437615	-0.06659864057265212	-0.17409622939153707
rs7129727	-0.041342408900085836	0.1486218962355785	0.15728930822373488	0.005454225479982322	-0.14305381697433794	0.13980170229319966	0.0963221794426277	0.1333674674380294	0.12253216357157828	0.056100944556131495	0.132240057819931	-0.008511975742606526	0.16327418838309213	0.08800582702861282	0.11260989374955023	0.14768379651487057	0.09075636189996435	-0.0033522358063180174	0.13618263500694236	0.06939711543630883	0.15638166408161236	0.14725721537157443	0.08385078586474672	-0.022341146432936308	-0.13339991982690902	0.0620746415528014	-0.07041373751403796	0.12400510155944658	0.08077143897093832	0.13179445117086158	-0.08215846017750707	0.14722591335980018	0.006110640654785793	-0.010901695156212766	0.10997723254449444	0.09543987858022311	-0.07913416925058155	-0.06255551352368131	0.07791213186786242	0.1494320474134443	0.03984865616725505	0.13784239763180342	0.1273347724267432	0.1108526760202314	0.054527443566210594	0.06861345719319059	0.0656868930209155	-0.01760718882082777	0.10805876730807061	0.12063425649396695	0.14060428197380767	0.11880691507804954	0.025459781348889876	0.008271306514067501	-0.013296525337087202	0.17626283962050365	0.1546238489724029	0.03376760655693095	0.07910765689472983	0.08647099965367705	-0.020509342709472984	-0.0008257336356920562	0.17224106415818158	0.14283757893084642	0.12659426189082412	0.04375524382873461	0.162235684910381
rs58950470	-0.10687150287599188	0.28524433218141665	0.06365603985015128	0.0636974254388764	-0.1659220657004568	0.11677016786396616	0.17270611575670555	0.203883072042104	0.004740221358983875	0.09260994979413771	0.14410324527495258	-0.08375481822824538	0.10594707704318437	0.16428666004725906	0.18017898893389597	0.03407075625017354	0.10463957117343516	-0.04816969036742825	0.084862643301822	0.08035609287619445	0.23731478030972544	0.09853725260612684	0.0907203584324528	-0.006983512176799699	-0.1839300740850908	0.06960125627794417	0.06256493966576838	0.17630561633735312	0.10090063430737164	0.25443464347745925	-0.03672887327462317	0.1757435373381362	0.0875665879116557	0.09527015511315791	0.477399643859737	0.17933374581710657	0.007011051265366648	-0.0006339742461010443	0.08829314080420901	0.13732434593452508	0.04965572017809318	0.10868500403036568	0.12534436710389557	0.1651962977804903	0.13341350180842806	0.11691435262667361	0.015255980129189415	-0.08431867901039654	0.16758290156019925	0.06786515130215737	0.1561174125298517	0.13844821626452108	0.08914724474682761	-0.03211519361046362	0.017738982887915596	0.1977061837768686	0.13747838099105691	0.009887018544402434	0.15034171340447658	0.26518603640916205	0.010975750842016357	0.07727808385927805	0.2015005009231151	0.20821658439999932	0.12412223437300575	0.25442534115735177	0.15901925186255433
rs2514218	0.08918744198009647	-0.07409099008081282	-0.09483039500115083	0.0446423541243325	-0.009329730100504415	-0.10916071590520467	-0.0497759032398642	-0.11700899344751005	-0.03129809312590795	-0.1144919014046308	-0.07346122628350227	-0.08682030320785145	-0.13734234377666443	-0.06358675169161433	-0.10074370754189077	-0.005178252784682762	-0.0682986964245296	0.15112758887954922	-0.03212789882157386	0.01887247799626899	-0.006863799331425119	-0.04836355925778148	0.03970449879598919	0.03675053611479918	-0.12549610486373766	-0.051366626173497	0.1085959595501447	-0.1808112685929056	-0.10801252011930687	-0.0741139274582649	-0.02582944006911541	0.01952426327738563	-0.033236998009676604	-0.028991285574325412	0.03150862286417766	-0.07422549477566896	-0.08311626653165806	-0.10182951921462785	-0.09433094306509665	-0.018127791012035807	-0.0157931623785277	-0.1576932971141308	-0.15542454240849668	-0.009806822769780002	-0.10517362932090092	-0.12264903891383207	-0.004726876209505385	0.05922684171650283	-0.027153731748898673	-0.09035100607984957	-0.035345163119835224	0.016918138964750445	-0.024709306680531694	0.003911620830134001	-0.1078629228170246	-0.02649335053642093	-0.1484865010161327	0.020283576607671296	0.0023564465530913343	-0.06279601464085316	-0.10948942206447962	-0.14199725312299544	-0.02289012245740259	-0.032991355847813424	-0.023742994886222796	-0.051331411633770134	-0.06503787448784112
rs12293670	-0.032397664064174124	0.062234982952980585	0.06712028907741695	0.14174724000569144	-0.17388460579364026	0.05464349501647472	-0.08257407476156123	-0.0015543215255187193	0.017108314050939308	0.07809727688721989	0.06772363998438928	-0.022025508924548014	-0.03915590490518752	0.04022137275561635	0.01091291876246429	0.01668937071816418	-0.023756539502099928	-0.15262127437096912	-0.005725758107237496	0.03961340968024879	0.0073913638786359944	-0.0936621662738235	0.03307901411496998	0.007088717216219463	0.031038447803621378	0.04853517304386049	0.01573241260458924	0.011745437188122949	-0.01063596290407094	0.09917285882180572	0.0889514821961525	-0.004935003094006381	-0.005512694680952545	-0.011196456312602555	0.10376425957631673	0.028517598034410157	-0.029379380164392954	-0.02519873722874703	0.028537254410024113	-0.031942512689387914	0.09336118755339931	-0.11725200023400385	-0.020224711622953986	0.06075615079957923	-0.04261911419907751	0.022841410135913138	-0.01116497262129162	-0.048667665774316526	0.013834560789567586	0.04621978693885778	0.04105236788462707	-0.03559825668384166	0.12121263882974995	0.034886590346862076	0.03641785120771046	0.0003517974686684539	-0.10204357676624698	0.05671265929500441	-0.05103051490759963	0.1502320343957162	0.0242503237996917	0.17168221974171244	-0.00018026428125862497	0.06768560898086277	-0.08173290128012789	0.012912794001845073	-0.01589998687888784
rs35774874	-0.19143138282997824	-0.09175465740724928	-0.021681657116700438	-0.07496670390026347	-0.11438271269105167	-0.04453825167710868	-0.11063459412700993	-0.1367424500121116	-0.052223798527713375	-0.06169010443752441	-0.09677932994610129	-0.008276036275028233	-0.09182217948388305	0.16015839951444866	-0.12134053781114812	-0.06405288206457062	-0.2041703966576443	0.12762029474240003	-0.12778643621380398	-0.20862650432233412	-0.10685155704952633	-0.10523822295980449	0.042331698749326255	-0.0019990341069646145	0.011542054289491087	-0.15584114500458238	0.10520802836562267	-0.08080261017411361	-0.23956733435988714	-0.08299225911001369	-0.13879966145767583	-0.0556524273362406	-0.21684171790247364	0.0024545973604543692	-0.07502145222320793	-0.07391624484165081	-0.19133539977800365	-0.1265933674991334	-0.16189280626393895	-0.11217503955549701	0.016050814151610165	0.14613812830238068	0.0006224848644316845	0.01204285583332785	0.09832561683326123	-0.09966189023644464	0.05018287246103365	0.03072144109565604	-0.18558269626759913	0.01182815035881203	-0.0895523987049609	-0.10377908682537355	0.19815250320929947	0.05498983832301932	-0.005457333038952686	-0.06920920602126367	-0.03496862141657333	-0.03413748924810968	-0.07145325994530334	0.05386340286832052	-0.15569119405681855	0.027419022297884003	-0.04100652267161449	-0.06305499634273606	-0.15042069212654366	-0.13945901263470575	-0.05399986503417539
rs2917569	-0.0611152526676423	-0.10265748954063512	0.09600568171412943	0.05913330358369439	-0.0047314779738572435	0.07714932738494192	0.08938314135295106	-0.035259662643092486	0.3021125183559934	0.10367905552362061	0.03498579712608522	-0.3057358983144825	-0.028439347297806224	0.08972641359463633	0.023242917520526523	-0.0187190081038172	-0.065125384705624	-0.03338268086621544	-0.17887674181759852	0.08634827875204834	-0.06287564785270652	-0.04618573917395275	-0.2580942827344909	-0.06983322850686688	-0.006341414165043882	-0.10924480573077952	-0.009147046972019124	-0.03144500786930108	-0.12346825411013557	0.022339844537547088	-0.0268296628114945	0.06130133359258794	-0.06130808664169958	-0.03310525617436089	-0.13046965003226849	0.09885476990058832	-0.10184378664161627	-0.10001428156727148	-0.1741846745750472	-0.17175148602280432	-0.09901273887360006	0.04861621691726037	-0.02372149090285304	-0.0011350383619228369	0.027014872307879616	0.08788222922328494	-0.10528353627110176	0.07544493004980103	-0.056596398310448215	0.17660606018325398	-0.07010350578643502	-0.13246615916735752	0.012823915997601954	-0.09072448311986692	0.23066562527989615	0.006223258726677326	-0.038081798083984555	0.0419288407609153	-0.06218985414916633	0.0020101812104057633	0.020580384000054915	-0.05670083433746638	0.025172369684192557	0.0060308463251018555	-0.08170025208610492	-0.07737680205711435	0.04827972967020273
rs4936215	0.01883281482288948	-0.06572298825498589	0.05567895255118724	4.790959863647253e-05	0.10983791076715346	0.07019080714522365	0.0011944418660669292	0.05933389895949263	0.11620989536153625	-0.025385159283205148	0.033273686947744296	0.020231657256721384	0.002568267334529742	0.051110082785264445	-0.015084528672366386	0.017657514394275625	-0.05155492417444514	-0.05960516145649932	-0.04198216797469715	0.024041572406381082	-0.010562633393954753	0.01105687318266188	-0.033261906641165885	-0.03011992937216245	-0.06912994019618235	0.03503708443315872	-0.03832866940929224	0.040110714624377354	0.0006936043009853362	0.02283975094908987	0.07251619099544905	0.0020253505123516745	0.015252951313388765	-0.013506247911837835	-0.0317808034682429	-0.021611482328760912	-0.07784587378412544	-0.10416401874618773	-0.06257770226614393	-0.005631021131473156	0.01947725513634073	-0.05052996987937053	0.009824733276705551	0.16249879186764152	-0.14005290193672468	-0.05095661697232655	0.009789028185252067	-0.11162661641817344	-0.021392533161723504	0.02887704748196035	0.041209920069793876	-0.1800330969840485	0.10239957989288705	-0.02651515323128378	0.022829321946073896	0.03272170436513911	0.026970239238312883	0.0030909268902302063	0.030240733764687142	0.04178908358949904	0.055388396076749884	-0.09221673785392571	0.008211782620120652	0.13881701613458866	0.03831437589152269	-0.02160049651461794	0.018940782041017942
rs893949	0.12071131546384871	-0.09054522867274678	-0.00106311135034311	0.0006425912888787858	0.1378933057864535	-0.05532194318346877	0.04408268587770068	-0.0026076906959587288	0.010465950546295524	0.042310354293134844	0.008217088872829173	-0.014110615498872181	-0.05198330588376647	-0.07260388501018737	-0.03327724569008487	0.028992131055517695	0.0012219032284581464	-0.03896039972460174	-0.10586220833072672	0.021736600791144256	-0.03232576453119478	-0.03455048000941626	0.0036108124358465226	-0.001957318918955847	0.004101487359961479	0.0029655122597867178	-0.04948617164006129	-0.04625501547560699	0.0034999740573812043	0.012779481520803257	0.10192773758863523	-0.07625793813607686	0.053048474861478824	0.004893582815189556	-0.1014159843419675	-0.03921947611674813	-0.11163192172249417	-0.18470551719623338	-0.10559810637430216	-0.06356074146940238	-0.04956859759188798	-0.06604905010150523	0.006660463998682456	0.006027507268478429	-0.18962340802801136	-0.022257597543344176	-0.11827566897560977	0.033377401921368594	-0.03513969197663041	0.04528259264610879	0.039775807793007545	-0.07669612295934389	-0.05275941396871629	-0.005123248070046553	-0.01785067369067718	0.0012174220782195809	-0.09791427492302528	0.024350521480601683	0.04979134823724574	-0.10049839159825492	0.020884717766134882	-0.121154005522707	0.01568705883435415	0.02103237052073039	0.026485085071419064	0.01596472182719253	-0.04317428292730301
rs2007044	-0.043163757111063586	-0.04462243442373474	-0.11873510739634942	-0.016028648110841166	0.03137141860561087	-0.13235365943891395	-0.15218414237468295	-0.05582616937046107	-0.05304209083869603	-0.09959490527924005	-0.10278513393435848	-0.019486538837929973	-0.12975865611217802	-0.020028751190014172	-0.09386415722169167	0.1588084704849057	-0.13341018885996472	0.08455380276255083	-0.008255156276670419	-0.07991685003321583	-0.07911982841248293	-0.10669466011585062	0.0005484934728993267	0.005734506907644747	-0.13163382622802458	-0.08946689949402052	0.024576370606624633	-0.11122738043412571	-0.15424541718932439	-0.07262809900117614	0.01598501874612667	-0.009412769592922721	-0.06793619443120164	0.09118177507148092	0.031436965672985054	-0.12083281551416626	-0.07884805198429486	-0.03000669244101057	0.01539835331863463	0.047610273689239445	0.0019190516238092314	-0.11125473039535008	-0.14015375083972256	0.03420633430401673	-0.004200510087121837	-0.20428611052096307	-0.03187330120937666	-0.035040915973257716	-0.055943769745327505	-0.06233976308559427	-0.07933948897079722	0.12440268270826607	-0.016085931748369305	-0.011627523722456321	-0.07746033983193533	-0.03822086408688793	-0.06856983141409603	-0.09030489345896928	-0.11868568223355039	-0.031436478274924615	-0.14532267442977395	0.00018508971782153647	-0.11375750650761769	-0.045617128272978355	-0.11946804000859444	-0.11678490959016231	-0.15789366007780223
rs1120004	0.10867943574585544	0.08234627481767731	0.10362984796701104	0.029567391786902663	0.19592021717620067	0.014063066920108383	0.07579658230713554	0.09364880672436122	-0.10923802842378443	0.04275779113350916	-0.03349307302921761	-0.03595904996984756	0.005238552982982856	-0.08847198628564705	0.08456136263121006	-0.00726930455496158	-0.12233006883338161	-0.16488728204625908	-0.07952662619941242	0.055938510351757016	-0.05336351362414672	-0.009088970158316553	0.0829361939062645	-0.03427359694213712	-0.02339184667638452	0.14246240886527461	0.18484042268258083	-0.030493307188057588	-0.04786342325109928	0.03957254584043135	0.2728690085781615	0.03591699084222159	-0.1105014315407361	0.04669438154483427	0.11915528516537922	-0.004267218048389982	-0.01749450216686633	-0.05215367968588936	-0.08851610935375141	-0.06429935164212162	-0.046630690206131364	-0.1175779068616901	-0.13335422636713268	0.14719963292965116	-0.14807758785387315	0.1015720647639948	0.016904466005913176	-0.06323750157614996	-0.01644097457792458	-0.05103373444589435	0.054656395026262294	-0.1083100409226507	0.16847475633685252	-0.06393839251325195	-0.004366249044509946	0.13688416678257198	-0.04962405823773304	-0.05735653009373309	0.053569029115005176	0.1701895971181981	0.08404562099625108	0.09853581948887685	-0.035643108738178726	0.12259338589362696	-0.12894652857165526	0.07165097692959249	-0.06466101579343114
rs10783624	-0.08021447219088466	-0.029159947590695328	0.020425946760129075	0.08621087177277162	0.005783662325475911	0.05771678346326233	-0.16808169723235944	0.018392765078570603	0.040476046040627954	-0.031250478832714514	-0.05850743003351642	0.07630926496013633	-0.07577911874001873	-0.10635364514659393	-0.08567454889872723	-0.06586137348081263	0.017131813424491542	0.04738899967878127	0.041875272680347825	0.005363188278146561	-0.018592212117029338	-0.08752127033664073	0.11650198211627474	-0.03524506505061546	-0.05376689963658658	0.02234481543509621	-0.03505438864874146	0.10816955024863581	-0.023800622502165622	-0.0918322361887956	0.010304645581354415	-0.03013508769157298	-0.01888679515704571	-0.0005615913005153878	0.01743226086411583	-0.06076015795468281	-0.019490651934161926	0.014122939221371901	0.060079173565104844	0.12194156743388088	-0.021964730302665235	-0.07720697048504274	-0.06365911041984611	-0.022650652546057026	-0.06098388428182145	-0.09827498381904114	-0.06773073435810076	-0.11037893780593096	-0.010852868583385827	-0.03978325560661035	-0.10647151339353564	-0.039727845112139504	0.09019073703523142	-0.17098520469748146	-0.07738795859029858	-0.11950296605218735	0.11712714527685926	0.006058019635531669	-0.060908934243082385	-0.06683731090838167	-0.0037036033882679687	0.05731489587291877	-0.06868767191775543	-0.03934969865488455	-0.08639931900317378	-0.05309955631059688	0.01251583649922794
rs61937595	-0.020437018128996776	-0.08184066591869502	-0.049475804757660655	-0.03487967334199108	0.10669646955292685	-0.055386603396970796	0.03607447232678126	-0.06847731103438798	-0.03962867257728873	0.03977151595187452	0.013420422716448742	-0.09268615345224485	-0.013792146722039367	0.024549217989823655	-0.03708420451384628	0.08019021357989509	-0.026634136148854817	0.11517854805588612	-0.049905765143587515	-0.05421853594410991	-0.05454609369238264	0.056413291092083304	-0.023612327804591212	-0.051945529387938845	0.014443446281985566	-0.1373695270239863	0.020259440953702343	-0.01110559703448947	-0.008385288374845682	-0.11544466409508895	-0.04715344409035588	0.0429743895333548	-0.011543328150286317	-0.006369054377318753	-0.14772587323045272	-0.04229693530056314	0.13065782998719735	0.15342152185722932	-0.08973661618458736	-0.0671931625762854	0.019427197097166376	-0.07738533342054855	-0.07829895542815282	-0.029897136259432848	0.05418829478382862	-0.07516318361219618	0.07124919220358046	0.09036351830399321	-0.04635943646938627	0.09856161928508657	-0.044012021260140956	-0.030379068351534293	0.007318979633855077	0.03218031434457246	0.105149004263744	-0.026773306044074262	-0.01516558878076833	-0.09543079206705594	-0.006398192394752098	-0.09653155044194128	0.0336116237025928	-0.14211405898687252	-0.013853735243669984	-0.005542505627408665	-0.027205955161467604	-0.1026000822110712	0.01793955353636018
rs17123263	0.002336908662150197	0.09144348554191334	0.07247488151573456	0.024426462610185995	0.06620702599345636	0.10691957497386693	0.0701461477082664	0.04568072612341628	0.006104192456998245	-0.5027052119240565	0.040683356747738264	0.15255809641667648	0.06285152037624203	-0.01876511393752849	0.057731772483233565	-0.06271163771934504	0.042664304723871525	-0.027087234685375997	0.06425571958898292	0.06295314686711896	-0.004869076287857822	0.05546122437027232	0.03726694566138626	0.12215368748261052	-0.0383692981810595	0.21651734679819884	-0.06576147135167068	-0.099326669038739	0.09274766088398649	0.043949631188422045	-0.05123091711275738	0.008993722834158526	0.09584875429598821	0.1413977751124136	-6.0317841616474915e-05	0.06697406901700621	-0.08008111924608671	-0.042593131137491934	0.10179503204229945	0.052621040688689356	-0.029093123426523735	0.023785412651647395	0.07435217722399333	0.0643551984163606	0.09533346715986452	0.05653316054315152	0.0011661763079106743	-0.08377313223141078	0.07958757162075038	-0.49785356485182247	0.08484835978930291	0.006972796300257985	-0.041457930265273106	0.0926338762086899	-0.45396073025531936	0.09024761122300944	0.02039791632813377	0.17535035564669482	0.07548169005913791	0.08854376538014207	0.13568829606301716	0.06392711021318721	-0.07155153151315578	0.03627044904342542	0.09570993902194798	0.10240365375310864	-0.011179904060478764
rs4240748	-0.10416971577598057	-0.024337786909960663	-0.0897126882270489	-0.22060121492785248	0.08373842567040672	-0.04684447886610044	-0.04754310011630556	-0.02933596392976221	-0.09549995217187156	-0.08937630347639725	-0.038368796545347944	0.14693167980551955	0.011436447377643254	0.17836346553721869	-0.04463549840510782	-0.11764829290711032	0.022338661000194205	0.07430445521244163	0.06101097950597035	-0.15291478905830197	0.008309722039830776	0.042825052006053924	-0.09324354441575111	-0.07275790321033955	-0.07308755341271805	-0.01410456999240644	0.0175782832755098	-0.019880988171042335	-0.029173241766664335	-0.03681192531347305	-0.10419272710604394	-0.06640342858823882	0.09131093344156274	0.08281759020297272	-0.04598341022238057	-0.11066625456720967	0.016010799296079906	0.011975181194778164	0.04089392157891686	0.05805223474404157	-0.05272077663160544	-0.06854764446779492	-0.035282055603297856	-0.03123391931614771	-0.05425001491203023	-0.13547460646475426	-0.06899779269892933	0.08985764805523562	-0.018374478011571778	-0.0899141336685418	-0.01721728582540529	0.07994323012654189	-0.010052171787827796	-0.047195152098494106	-0.07138696136543476	-0.06187293040579225	-0.017856176961019894	-0.027921411096278975	0.06060039100785224	-0.08985003254054226	-0.016560427781440075	-0.1210077759720625	-0.07756316809793319	-0.01778101018521586	0.05376894646951461	0.038051741289814804	-0.022325760684496748
rs36104021	-0.001337265157322638	0.040267676852546334	0.014345973165779164	-0.11098263138002445	0.05053251097733651	-0.05273419696044208	-0.07045386598196814	-0.017721189724458266	0.05367400162833421	-0.008095859369668501	-0.041382096053270055	0.05003439382194507	-0.0483211773606006	-0.006336577187239919	-0.002012939261198641	0.048003443646099514	-0.001440793945048894	-0.00041625195309986446	0.0672456277261004	-0.19276834571345638	-0.11164639263502125	-0.06049379145913102	-0.06132590479388582	-0.13493933508569095	-0.06330573224241175	0.026752084949119508	0.04723214662016822	-0.02506346155587599	-0.04144100507250203	-0.007465481822071574	0.059992184587969136	-0.0699195650339503	-0.014913246387767948	0.10622493478097998	-0.01065539520642262	0.028551846801179285	-0.08525775566229792	-0.14317157080686466	0.03995260652365911	-0.03956750146738784	-0.12117189306056846	-0.01880805646397421	0.09876234619635722	-0.03951429062723113	-0.0856110908143314	-0.0353722673698922	-0.09409598043930617	-0.05110994857431784	0.00870215276721114	0.024728250720758838	0.014674516020368455	0.05600398908883868	-0.01870903672736511	0.007403812587732669	-0.11190831447542432	0.015238506420894138	-0.02486196138090139	-0.07287540340602557	0.03302384105360161	-0.008390595537106004	0.04855275356366243	-0.08543657050518821	0.026416573847932827	-0.07325866244642876	-0.017267687643997068	0.033527465375016934	-0.042939768979286974
rs4766428	0.10947441836211794	0.08090415077518363	0.040387913077109	0.08327947445078059	-0.08985764805523562	-0.027345380941746694	0.05378750564496149	0.06018673882660204	-0.1268340953596592	-0.022642242518524064	0.013424371113531595	-0.05639038381734972	0.01776895183218909	-0.09750044503912096	0.007082840238535391	-0.037517035892761556	-0.041314556199645226	0.05623831322399123	-0.04909771226165391	-0.026914816743768402	0.06645720884286434	0.05443778989612798	0.08945228728987133	0.04309022063138542	-0.0016500404502229127	0.12310156063910908	0.0947864605130886	-0.058987529499690494	0.06238899733597941	0.048749036522867745	0.020443613979798877	-0.02113052136477776	-0.030623871817851544	0.090287163918896	0.1027448603178793	0.016769743149251573	0.011721111607710765	-0.014670675735189181	-0.04841414059668301	0.00011581027835304606	-0.022597471211878974	0.017624392547049016	0.014713734953750805	0.06290748534546804	-0.01568274517975436	0.08282484766950639	0.05992701385822541	-0.04895481797213101	-0.03193299045408745	-0.06682517182300626	0.06585126078086392	0.07098281817202932	-0.07533907095768934	0.004168652071919371	-0.055103900554959034	0.09004544596386971	0.010326844790166665	0.015027584015799256	0.002812746092961785	0.04497651796644011	-0.04160420759441749	0.04122059735823116	0.0859088283115384	0.04494451290374552	0.07002934190158304	0.053631867847484145	-0.013147694790030546
rs2851447	0.007020154283035972	0.05477954856687845	-0.06809021092550076	-0.018775790519485438	0.004516703134735623	-0.026618676621666337	-0.13182546157408698	-0.00919843011595021	-0.08221220897733662	-0.08373877442035238	-0.026935569035391793	0.5695087440933969	0.010041884879283971	-0.06295707390552129	0.012576258008906844	0.11361422521952134	0.11381137078017134	0.020126778756920122	0.19747728458621158	-0.07329266182797567	-0.010206837496926262	0.05909483073297716	0.19154051987597864	0.0403865204709141	-0.04124042809206475	0.15039332373010997	-0.04102582466848427	0.013758217594167309	0.03778153875781382	-0.03581404610539296	-0.016367775133468127	-0.055862961484898305	0.0028867717364149926	0.0005412552045640596	0.13436723737176504	0.02226907554296177	-0.013910564916574854	-0.003353730390295307	0.2073213148177928	0.12443096483583979	-0.02833629049866476	-0.05257878012042219	0.02657493864815468	-0.16773360024047623	-0.062162523837803844	-0.10292311915093182	-0.06729661067422833	0.00258895591932003	0.1026697502537566	-0.11722701184314753	0.0240842640812395	0.0783366882102859	0.0011479071648460954	0.04803362262124265	-0.16429536177364323	0.009480685236253466	0.038547953659535485	-0.0665697732438251	-0.0414810933459186	-0.1120073769801525	-0.03387866099041298	0.05808705841463971	0.007505366900027	-0.14381698893967843	0.06088056990078501	0.08477750170422917	-0.03705864499321555
rs10847692	-0.03772051026512057	-0.23599647460649198	-0.3369302693507722	-0.16330742500858558	-0.01909045400564419	-0.32468733043442477	-0.30456337981792314	-0.26456304321028623	-0.11026445628708126	-0.05017833477742695	-0.3585730508399561	-0.06451773087639594	-0.39912146836524376	0.05374193043271132	-0.404378155434097	-0.10328991263868109	-0.20938287684442958	0.27462615962268944	-0.16591343600869962	-0.21106070259758702	-0.12073346519907714	-0.3363609544608242	-0.008954356781875523	-0.12653644935065342	-0.02551113112526123	-0.18685170016075675	0.1431350146413434	-0.17026052932815677	-0.23945636184951496	-0.2841760630304681	-0.04272051930832257	-0.30342609452070823	-0.12245304870949583	-0.034129977804889126	-0.06840185755809741	-0.39455401187819833	-0.07656300201468948	-0.021448026479012186	-0.20054721439699674	-0.08963686399626764	-0.07815179195387491	0.024980581493918606	-0.14769599555908616	-0.20013546496098808	-0.01727119608537974	-0.3939419157399248	-0.053288946159931454	0.17720414345222874	-0.31050753190474156	-0.03686735164944501	-0.3456999027360274	0.10246371305535085	-0.11444304693285455	-0.12280753215401219	0.04345393931023905	-0.3092155615060066	-0.20916318619328217	-0.03981368075963568	-0.2315955997915653	-0.3201978913683992	-0.27672845591478296	-0.11467332319457404	-0.24042833348571238	-0.22922939691421704	-0.16803784436658256	-0.2725139999584065	-0.2672688527769962
rs9545047	-0.18744667576351667	0.018005023913819872	-0.07032180158983191	0.015569087035348487	0.09145425671263906	0.003682446260635072	0.14761863903056852	-0.024431819591777863	-0.08635776842147644	-0.09923641360087075	-0.017000652168956472	-0.059249209432948015	0.028017101438873617	0.09506613021262314	0.026146983797339693	-0.052030538921832174	0.020183864226608825	0.02119836813103164	-0.09948655619178909	-0.047155542373225535	-0.052292596022399905	0.028483473821048582	0.0423122713660803	0.08777332623586905	0.10032256009737905	-0.08909693017079406	0.010845695270809214	-0.10422977818367221	0.0015936200807312824	-0.008421285331822119	-0.06576057972024542	-0.03656945297591009	0.06562735071568064	0.029661807406722966	-0.009000303244962714	0.05859252567090344	-0.09362925502757109	-0.08767997558807686	-0.07305093159134689	-0.04056282264371811	0.05413439530131954	0.052685672225633605	0.020782736942548414	0.060521362313822394	0.27660679992113757	0.03662183415233812	-0.0570523694512646	0.06268753978602298	-0.0077184189636905825	-0.13767821498672259	0.02315560594908929	-0.07420954985844126	0.015773339234410374	0.02731619357753198	-0.09402051847656562	0.01334262113772725	-0.048805555558480526	-0.11489701673627455	0.09429953991607988	0.037448711018395954	0.1410901491804146	0.05712699035263459	-0.09538655809173083	0.024226052240936283	0.05092363511989036	0.08339584094679912	-0.03421618848332394
rs17257836	0.003994304385837208	0.035482448916987076	0.06417084773082096	0.051667064739374755	0.08818869556053271	0.06659280674585964	0.11607914779396518	0.02985715405068405	-0.03982125616831372	-0.43060534048601856	0.10375532092900758	0.11274659721014633	0.06600690669272598	-0.011083722994029472	0.05548109270705215	0.02121654123505302	-0.00748842133248206	-0.0604278150474876	-0.11812133651738684	0.05313801412945235	-0.033383540239807295	0.031738958267287766	-0.0022069268828058624	0.10870310372513117	0.046475544912184016	0.1936540403538741	-0.0607734682674592	-0.14152399630062792	0.054399147957386214	0.09519644694609243	0.00295125834031854	-0.026977917590334678	0.10320455499624873	0.08812575505278109	-0.024866014043492177	0.04170751848034557	-0.06869786474908907	-0.08642888086805828	-0.03788912976176269	-0.06395143430064747	0.03886560457874159	0.07854876832205175	0.05452922620129163	0.10256333684644334	-0.03066967523387784	0.06466278391081003	-0.005861946055010963	-0.16192194005713487	-0.04106900677490275	-0.34289415230984915	0.03382429591807003	-0.010146840422232503	0.04398894487183981	0.0443382257773127	-0.2511216280172693	0.07447548587527715	-0.07988392620847638	0.10784088667815754	0.00764393829081517	0.023076379390269776	0.043703105778813464	0.007295813031213155	-0.08652031078574755	0.1507808183454309	0.026822108018418202	0.05443436380165259	-0.08751927685460342
rs10148671	-0.06735273101938521	-0.16786318495655167	-0.19307903177674185	-0.19038502952962555	0.1192457260768647	-0.04145220353812608	-0.07660062448095004	-0.06757309335386008	-0.02816749931194296	0.0815675398021966	-0.1150016752236021	-0.06490288206487488	-0.1541380990308594	0.028985125714356675	-0.15492576184099652	-0.01844774791584398	-0.0985384810115095	0.08626040897567477	-0.0027472280333630224	-0.03880678711592431	0.004618278003000067	-0.18158144153567435	-0.12313638550635736	-0.04901113962464109	-0.1249615714682774	-0.171547289449331	0.031720904654846005	-0.006235695650976952	-0.1882042298234472	-0.13215263507846617	0.06469579318564225	-0.176568006150562	-0.09918977459313234	-0.07785081701281314	-0.07230304750562666	-0.14208655449583443	0.04427430857191544	0.00909566670181145	-0.0416862405183074	0.028323154839658037	-0.1143276790178558	0.004568812757290832	-0.0468196066471918	-0.08445575237621389	-0.008852082012041664	-0.12573200961205003	-0.05756445923096725	0.07227654963665786	-0.12101216936334523	0.08786931437752542	-0.1280864311322189	-0.12556593764029556	0.05035566292016464	-0.13748616369543315	0.22844870912099474	-0.16135683785162214	0.003128977741670583	-0.09155390266751362	0.039826559116194586	-0.1568541711176743	-0.06853366571447461	-0.12414263849128682	-0.14948847154862094	-0.08470651816116173	-0.10153917009671179	-0.12375086288833756	-0.09992474455649852
rs1191551	0.0484237830985201	0.09497136776628849	0.09411874823810068	0.16864264714248736	-0.06486922973969186	0.06131584587483536	0.0015708682503746368	0.05751283388973455	-0.0737612997364283	0.17196821873261675	0.09783321751900478	-0.025272123956798138	0.04644562909065604	-0.16892519296107386	0.08382250948947821	0.028831050946298623	0.09282129476339397	-0.10918126271240797	0.08527528607149762	0.05990581855649316	0.023750361191948195	-0.017164199978543248	0.034310069381538355	-0.06164918967261299	0.055643172238153904	0.06596269344868819	-0.04408668411123824	0.166253290545174	0.048144367409897006	0.056056475764633545	0.11582116612214374	0.03907511481503399	0.002879759910730123	0.0895398095170331	0.08840099300717497	0.10021055548859133	-0.010559279367009239	-0.023271749201455708	0.1319253788751404	0.06231370517334835	-0.05736211948029479	-0.12848437758594924	0.024147181393289915	-0.05787782114514324	-0.10718836788371823	0.10391505717622333	-0.05425644835783649	-0.0970109220587125	0.1128462870225036	0.058831175578518295	0.03841043622121463	-0.015686709077281882	0.06697932037856119	-0.10929109434344904	0.019797600187037925	0.021587148577240076	0.11559869486692466	0.07176408553904311	0.005596143789196722	0.0798380851882897	0.07229614807055489	0.043180187902713	0.13899156250144976	-0.0465925123534225	-0.027862567623551403	0.0535607161145659	0.08120937003374616
rs150437760	0.03099051435994326	-9.857659875560513e-05	0.056625455015958996	-0.020319841600066682	0.047563341517767	0.0325951235745999	0.11417230631710516	-0.008921572239394064	0.0027235499237179637	0.04244625674229294	0.1453561870281101	0.09723204389711358	0.08446049452499253	0.06288059016240799	0.09427789574108925	0.11990019308256993	0.06863322311323461	-0.0014001176057150692	-0.022092802390199645	-0.1129777778088225	-0.0840202622244479	0.10231214785498573	-0.031116083925334225	0.0043682044112643105	0.11032534946430418	0.018213442645338005	-0.08756042346424892	-0.022369907635445184	0.07030653720447418	0.04652702739020437	0.017846692641597283	0.03201100969775236	0.08699894328597382	0.058265802129338864	-0.16208562267425863	0.1104567792008284	0.0955984509210072	0.07071209160343168	0.017514041982143784	-0.1389600199707518	0.05293590927282108	-0.02434468970302654	0.10414955886169389	-0.09756317209671353	-0.005373661313602438	0.09084173856696753	-0.0008161972904246321	0.0666393352784217	0.014019590602458493	0.05719369302245697	0.06746324001599775	-0.03938862969149566	0.0117352435109939	0.1296330021749886	0.05161199447450417	0.061938016965611874	-0.08101122338850283	0.0026910215544855144	0.07597784845009883	-0.055677294588692236	0.14722132384131117	-0.025603819832668018	-0.05105224801292203	-0.007256165796528457	0.0508475070650308	0.02892631167761563	-0.02227049552594098
rs2332700	0.17949676348458354	-0.0434678234519187	-0.12329629830154568	-0.12255013142951703	-0.057609803856213164	-0.20228618583816063	0.0007008426508191539	-0.1963418769014289	-0.07778887823073123	0.04622905007758828	-0.13635431779226084	-0.12649773713286572	-0.0945358228103764	-0.09572044164121833	-0.12449132039846879	-0.15919749377161727	-0.11405038628970296	-0.008368328718557902	-0.055888693648570804	-0.07791757277205115	-0.06634489384696109	-0.1684805405638422	-0.09033961581710388	-0.1054968988435781	0.12173453777351824	-0.1271300789600631	0.12033149226369183	-0.1938162233336743	-0.11980944668110367	-0.1496528581392887	0.17321289469793874	-0.11037585426819899	-0.07605367985326816	-0.1516994571328044	0.008992337490421987	-0.1201636445861626	-0.03816773301382592	0.009453194946312313	-0.10006033656874022	-0.14377177376497138	-0.06074770753134176	0.03803646398778157	-0.03076045423847797	-0.0033648823142954994	0.019852641471133137	-0.09237198615868321	0.09380808913616301	0.11194753631157286	-0.17003975718963474	0.033277981987864996	-0.11296157422995505	0.11027250940116982	-0.049369248601995805	-0.0625165108272719	0.14530249548797114	-0.1149761903222397	-0.1879135461180021	0.02614303500783331	-0.08854742903441798	-0.05767980780668318	-0.0903962074304082	-0.12309703188072622	-0.19908596988258914	-0.0801024914497068	-0.027033591307052997	-0.12961988819765569	-0.20089920579233225
rs17680771	-0.024980343019638643	-0.06175308532776041	-0.08662636970188914	-0.008727889531856759	0.08138489177562336	0.008983910026926488	0.09818318587579007	-0.039012844108933034	-0.10537268308961399	-0.4889786575942519	0.003951409733730946	0.12055646426039626	-0.019743624321190912	-0.04001110907328411	-0.02456767677108109	-0.10141958614368142	0.010452189223894303	0.06358967450838841	-0.019496880411728118	0.026888068714611885	0.04754336297679109	-0.0038467641935869866	-0.016023281736667474	0.02005381487862449	-0.02985073319516113	0.04276573312296649	-0.09579736704150536	-0.09543098958998088	-0.03811849797137865	-0.020317722129952396	-0.029391958800167567	-0.0382468077416411	0.04419040955968121	0.02870999761874761	-0.0186297428271089	0.013616014578065558	0.047935988065298786	0.08736463628646877	0.026699817629497653	0.007738365889196672	-0.024132551212322266	0.056920654700058894	0.03804222415789997	-0.025173085517618175	0.02979755475437939	0.00017049851830049288	-0.15192627343616613	-0.0036003492537736814	-0.028428738624938804	-0.438809859113377	-0.018991958282566605	0.014450425889249649	-0.040973764232526924	-0.025768956641070193	-0.3514557946788231	-0.010408478348897608	-0.0162149888160356	0.09006629436024068	0.05598958962300867	0.028696362648389453	0.07376527005466472	-0.024428724436682446	-0.06558089428472137	0.027873878155707372	0.020767648326061042	0.07690648054079934	-0.06500152787357602
rs17695868	-0.024980343019638643	-0.06175308532776041	-0.08662636970188914	-0.008727889531856759	0.08138489177562336	0.008983910026926488	0.09818318587579007	-0.039012844108933034	-0.10537268308961399	-0.4889786575942519	0.003951409733730946	0.12055646426039626	-0.019743624321190912	-0.04001110907328411	-0.02456767677108109	-0.10141958614368142	0.010452189223894303	0.06358967450838841	-0.019496880411728118	0.026888068714611885	0.04754336297679109	-0.0038467641935869866	-0.016023281736667474	0.02005381487862449	-0.02985073319516113	0.04276573312296649	-0.09579736704150536	-0.09543098958998088	-0.03811849797137865	-0.020317722129952396	-0.029391958800167567	-0.0382468077416411	0.04419040955968121	0.02870999761874761	-0.0186297428271089	0.013616014578065558	0.047935988065298786	0.08736463628646877	0.026699817629497653	0.007738365889196672	-0.024132551212322266	0.056920654700058894	0.03804222415789997	-0.025173085517618175	0.02979755475437939	0.00017049851830049288	-0.15192627343616613	-0.0036003492537736814	-0.028428738624938804	-0.438809859113377	-0.018991958282566605	0.014450425889249649	-0.040973764232526924	-0.025768956641070193	-0.3514557946788231	-0.010408478348897608	-0.0162149888160356	0.09006629436024068	0.05598958962300867	0.028696362648389453	0.07376527005466472	-0.024428724436682446	-0.06558089428472137	0.027873878155707372	0.020767648326061042	0.07690648054079934	-0.06500152787357602
rs35604463	0.05102608814521916	0.05203566791140309	0.029817177520875073	0.06433359170097218	-0.009649341901959511	0.09566120745499952	0.12477533993092943	0.13771051906741294	-0.2025689257218163	-0.08538620721129171	0.06387173841384718	-0.016909257341833052	0.13804128754282566	-0.05104875979038733	0.13548830439757792	-0.03248940159070259	0.03633829705281649	-0.15804884726281115	-0.020514408263805996	0.1319927254841684	0.10824034053558029	0.05904915773747101	-0.0944318591658196	0.015303860932203435	0.13199207758135076	-3.929276376373116e-05	-0.054427922949872205	0.02010335831834895	0.04997439929370535	0.08191171556757888	0.017348037305093725	0.01673808328706714	0.03544121769313928	-0.10948731199160845	0.14478189592374574	0.11360481506298986	0.15539978637808075	0.14368694229355616	0.0802700860399369	0.07184106183748203	-0.018374595234030837	-0.018678654721090218	-0.026461607533456805	0.15592796724184538	0.12516203359050165	0.1682227681521499	0.0021846316106802813	0.05731936609501099	0.08111891649053608	-0.17580673288165735	0.09916893979567146	-0.0265548092308481	0.021800179778145416	-0.10973764306703865	-0.10317900843836897	0.05578745054157789	0.11378356495978822	-0.09610494937071674	0.12776943899424872	0.12488626140674845	0.0555695660492587	0.07203583667974257	0.13824727713469048	0.16744855455949817	0.08171990873605023	0.07743735642973357	0.06208071053356548
rs10083370	-0.07072029106027047	0.01634711306627632	0.06147817209394372	0.0711387510684866	-0.029787017165548713	0.025764175821172748	-0.07417320383938253	0.07218502948554098	0.01918709280049157	0.1311876205999294	0.03726844312788321	0.04250650298228105	-0.00017451971457201242	0.0047195134113136175	0.030874365627209178	0.4600997429742289	-0.007934280457921295	0.01036372919029196	0.04794995134684355	-0.04528869331964483	-0.011868236111640283	0.09191310950550921	0.09013631950288516	-0.027890724415849003	-0.17659261290748104	-0.00019117895993211594	-0.07822650596223785	0.08981029332954878	0.033020163275036575	0.024672493921334387	-0.05327724716819167	0.07169854724983907	-0.004069055875157457	0.13794746461784954	0.08215142169203735	0.029180493393971586	0.08992361321776657	0.041507695975191404	0.012976617283860754	0.06704835871567723	0.041782200256204126	-0.10212196191723225	-0.05280131556902242	0.10257128620066622	-0.002606541320030694	-0.0548115544564384	0.10324700598427367	-0.14029478020106959	0.0658179540236829	0.13992459253942835	0.015255863635966076	0.012471422620424652	0.009992879318563564	0.004220522240338668	0.12156105610092098	0.05715838428290561	0.03514550359939677	-0.20511491062945317	0.051064859895822295	0.02843802119287115	0.0371570337931585	-0.04682850788730615	0.013243002693022865	0.0455722718318693	-0.06695996644791374	-0.024167878797455293	0.05947563352549496
rs56282503	-0.21344938962909363	-0.07619283944265444	-0.12030512054890848	-0.17839978495780354	-0.1739001623931747	-0.06655616451342207	-0.16239953538083587	-0.13527632546244994	0.08981474922317645	0.06337574886383841	-0.10710238127253238	-0.050525690223189944	-0.13276057968924604	0.06271047627377585	-0.1673934434136184	0.12722361740668794	-0.08318665120943247	0.14685908295085426	-0.1151221549015874	-0.06725976250609354	-0.08034023531991892	-0.12507892074919114	-0.07112803864948451	-0.18211400257494917	0.06661704133192499	-0.15881212863181082	0.11991370705808148	-0.0743488248529634	-0.09220778196129628	-0.119998093195395	-0.1138337223334217	-0.26947348574354413	-0.0879788730807945	-0.014214793888306418	0.03174225196447822	-0.07114309841416983	0.08644088734299567	0.11140869868526952	-0.10948027883429906	-0.1130490172192867	-0.1674560494771032	-0.043487494359761125	-0.05798499821219477	-0.09092061779601282	0.17071436360838196	-0.16619881720816013	-0.03118485555414789	0.09614337371148551	-0.1355013202364761	0.1496859675799971	-0.14638963884651934	-0.022042419872586524	-0.07684736330853605	-0.15994581110301564	0.05813565706290735	-0.14573587081634104	-0.013882439953532232	-0.02918955818490552	-0.14476910056856235	-0.13311899938828092	-0.04448744985796779	-0.20642900277140025	-0.043017353188101105	-0.11559029864877371	-0.06345149596012321	-0.16066585759510804	-0.019815711273725292
rs281299	-0.03155030988095697	-0.10999422312179466	-0.07972147369330129	-0.06727239493920775	0.09514248588271372	-0.07430429564084114	-0.032129364847180646	-0.09748608494356721	-0.0891878108414403	-0.1684243437961869	-0.03957595085997584	0.025109263064957272	-0.06958669618932763	-0.03324607771909848	-0.08698758837748523	0.03628871385916567	-0.014488698892587705	0.08104637271771425	0.035060321810181386	-0.08244246377838546	0.003619320992206206	-0.007416491968835599	0.057019882819185075	0.0535680751417603	0.02555448612131313	-0.10439133564507652	-0.14873275998538485	-0.06264182368483273	-0.057987945297597175	-0.017838028121702855	-0.06107379211366805	-0.09273251966805923	0.034876708972125935	0.08160373262145976	-0.13212178957626228	-0.11104027487039912	0.05247466632553993	0.12545212999685826	0.0425525634448421	0.07866675400321206	0.06001367765400013	0.09017675689652466	0.04050619204415251	-0.006550457755871605	0.050297690103251726	-0.05822798331659795	0.12096330853057752	0.022953659676695326	-0.02257970631472824	-0.228018222052826	-0.0567793140631301	0.10100745459671069	-0.15364914889609005	0.1029291613295285	-0.12640670346359834	-0.07975753396490733	-0.037653998244197434	-0.07399053441065585	0.046853119496494955	-0.051442591740301746	-0.07427669314171924	0.005706879294473219	-0.035673469252045564	-0.077113970581035	-0.025160200750763608	-0.06919759546122944	-0.04281351993424864
rs12898315	-0.05137979997210635	-0.2744134424010643	-0.19345570143146365	-0.15024743813634064	0.15452187073571005	-0.15331050446188005	-0.11815454906133253	-0.19215632611143246	0.07216638951151438	-0.12509611812591462	-0.18842436985828398	0.062323693444480355	-0.17872200858297033	-0.038222869284345276	-0.19925881567336898	-0.032536261435239196	-0.1859560155104688	0.12026952093555758	-0.175241312080415	-0.10117776562345221	-0.20537369186279897	-0.17553978664714145	-0.1525763628240247	-0.09112357159597212	-0.004595385781143176	-0.09946626914269713	0.09810900350763627	-0.226277268803028	-0.12340027257183749	-0.21867352874844723	0.004259396998745887	-0.2919915733345693	-0.15179649861688177	-0.028324359921755613	-0.1433488408525044	-0.15464858680618274	0.02963130046277077	-0.059944939902320395	-0.16473708346669078	-0.18414151099915604	-0.14952496036276697	-0.11773211395351045	-0.15883310345419818	-0.1608110198481234	-0.05305214239517673	-0.18790734788499872	-0.14646164297122158	0.0032783124874504964	-0.2222524287622119	-0.07319006181922405	-0.19620021883829078	-0.17326332314396578	0.06069333950148696	-0.06695651606062167	0.03843163536502033	-0.20634758318898727	-0.1657384407150964	-0.0059649877835574175	-0.15612970988424732	-0.17832504017269163	-0.03198182607982908	-0.12674020910625355	-0.22383183130346118	-0.1533379119236234	-0.08997920875498533	-0.15151700426786996	-0.22469020339406598
rs12148337	-0.02844911243561594	-0.023363598805163865	-0.011831278356331168	0.05761316327801807	0.08045415948610556	0.008937618052210357	0.09656576088380504	-0.03142015095334239	-0.0001153507135133541	-0.09180453548339904	-0.010964410601877778	-0.16721118591147074	-0.028695880006207358	0.03059690362191489	-0.054433815633592716	-0.12334570890551085	0.019028700839198682	0.08719145895187515	-0.17226436276639112	-0.12455635686138808	-0.09705296822283664	-0.06549826424170191	-0.03402398004425044	0.09887758320285331	-0.020688206600440025	-0.03369765419006133	0.04097312943075077	-0.09602954341197921	0.04237170981192208	0.027791104486550568	-0.02290209411410081	-0.10501735567792972	0.08503014338770888	-0.008490744673836818	-0.11559971265623659	-0.010722949321819006	-0.12231943400000028	-0.1979913297360739	-0.14302587054791696	-0.09136019332513935	0.061202087763486276	-0.010682115404168744	0.022687256154905328	-0.03898391637168339	0.060842903042219273	0.025696295733949305	-0.05742305763297174	-0.008439976571311068	-0.08880295149601707	-0.08507590665223079	-0.029594865913103972	0.022498353909641583	-0.0904561985276386	0.03427901817753736	-0.0292485467334456	-0.02414063936645	-0.09292897704633317	0.02943768196664977	0.03309176692661348	-0.09471864017617158	0.0020404049501737687	0.08505894173424416	-0.034275321867670475	0.0075152807522954205	0.017769420112004015	0.005705037472053357	-0.05548274851941985
rs3743078	0.130227473824543	-0.0128076732812594	-0.006375273504790202	0.042593771073267825	0.3359899818440801	-0.0010909169201575267	0.1278553806968565	0.11471755476057545	-0.07923260634264671	0.13484808339241708	0.03294490307187608	-0.02436611304343286	0.03422518076695565	-0.06339967968397107	0.12480290804616126	0.13837027344262912	0.002669297850211252	-0.19225215800978315	0.06647349682029947	0.17108809850119328	0.09120080748106206	0.017245468102380864	-0.08208586686887882	-0.002638724001568228	-0.056604322302461596	0.050133498394749704	0.003314526596698433	0.06517123299488761	-0.0067950187215467485	0.046840420531840135	0.20311790893793405	0.13294742777948876	-0.034606116464420154	-0.019300080380014305	-0.0028388387710137106	-0.007907641347657982	-0.06374994386736303	-0.10328037587118832	0.05283956549475667	0.08925976642054897	-0.004972627386960225	-0.09786916587140787	-0.08798032985648026	0.08547152076049486	-0.08457665993861435	0.06142178899716679	0.0016702646033904137	-0.060180752887842505	0.10222630647138854	0.08830830584406774	0.0761345916476375	-0.08988068411857167	0.083896882986213	0.010634574900773049	0.17563193955360584	0.09356578976326428	0.027837421257849087	-0.23355691514693247	0.10191025852079164	0.04768523329194327	0.025739197176476346	-0.061400076197101194	0.12590823204856386	0.0945945025780686	0.030595203013658107	0.0665640902988948	0.017616317251354492
rs783540	-0.05070901176240235	-0.09709282027377195	-0.2477605302783597	-0.04247784855478135	-0.05915678845679242	-0.24961066174558832	-0.15762215866357848	-0.16202663960147917	-0.48614268486623385	-0.1536724648391363	-0.26569366177225556	0.0782023669966556	-0.17339251096811695	-0.04357571666316177	-0.16040673403341657	-0.06616736452156442	-0.19182009582244242	0.16156624010326248	-0.12350298217585134	-0.1926510871061143	-0.12001758136595976	-0.13519003183086106	0.13808843192676937	0.22468024306735002	0.039591967795597906	-0.12072444038205235	0.20207939858995955	-0.22788618758478985	-0.17135718964040017	-0.2166444817548396	-0.054212104072227534	-0.0978949685985032	-0.15541965799718424	-0.0031578323717635025	0.07869498367037128	-0.1833345754208231	-0.026141000801868198	0.027574291800722767	-0.06130104623617537	-0.041300822025607434	0.034774460518093166	-0.115292732200297	-0.24119480706788732	-0.06043538218013597	0.0017921858294627808	-0.19071751721716632	0.03573854067976376	0.21781000360560945	-0.1221428007727375	-0.21366966074478003	-0.07422246506860163	0.08279806673858173	-0.048887388819027315	0.09656496048593241	-0.2439539018476027	-0.11399012414468718	-0.14897751497604042	-0.09982012790559633	0.019672254979224514	-0.04173466069925674	-0.2035413379712105	0.11383248040291513	-0.12646648603327	-0.14931980162678998	-0.1344325284753832	-0.06584025669435922	-0.210549208690233
rs12908161	0.13632341430571873	-0.1187507924834496	0.007312870981871449	0.11805311493794289	0.11533860810404196	-0.017667580147120557	-0.0024141414238811423	-0.15284942806635107	0.013005165731467556	-0.26722111435013457	-0.09919534515947553	0.016792525468237094	-0.18820716041426244	-0.16850660900592762	-0.11357213644877513	-0.21877784006405335	-0.04565042011274334	0.05444628693858241	-0.09117386176108956	-0.11228710449529988	-0.0912205978182308	-0.12420187400993167	0.18638206829089562	-0.07502498529192747	-0.014584334289208892	0.066041901119958	0.12344748267278025	-0.18430274975056415	-0.14355052763008844	-0.08782421704582379	0.11019461937217989	-0.015753516827856785	-0.09304101820285549	-0.048092150407715625	-0.10776954152737761	-0.05649398052760955	-0.1859173676789081	-0.14439091372502297	-0.11701184757294905	-0.1492259299226317	0.03972544726366313	-0.04331065658418928	-0.036029537696340645	-0.15957607332738138	-0.046219526012207114	-0.042764452135214764	-0.04229642411876899	0.03438808442474191	-0.10596208966741136	-0.312114036463891	-0.09509977367799835	0.09031459948000214	-0.08982440438744095	0.008583403185665204	-0.2502945079022599	-0.045514949481190455	-0.18877955985469283	0.08306636817716623	-0.023298565917422142	-0.01800678084818481	0.018173485531773902	0.07456389737910261	-0.09091629647696856	-0.13370139941437298	-0.09267906649237644	-0.03171492771644561	-0.11355110103861309
rs17514846	-0.09948034535318412	0.18902730892003594	0.1767576229836403	0.04151164211738483	-0.18011441723431762	0.1380798575039442	0.023140186253128598	0.1571081612564694	0.19945160579906704	-0.014672188571731377	0.11048931581470281	-0.008128501116713868	0.08028846195453312	0.10299911051846121	0.1055633157073166	0.09883771530498245	0.02863953699490061	-0.08773408608675894	0.05047755167557886	0.05608307233421178	0.08984464633137981	0.047204859136705406	0.02060076794392508	-0.0336712273857601	-0.1873034906004424	0.14636168445109535	-0.026728227915766116	0.07499447609942071	0.070035494836362	0.1673475737652883	-0.042793916966929614	0.11359491092817643	0.023204597486562693	0.016565332618140645	0.05847320875799493	0.12561468770472256	-0.15722235629910306	-0.1798856110992939	0.012526853450937044	0.049035529325848315	0.09090446085492822	0.11865726510451857	0.10258074049090003	0.13518866846640348	0.06230646775796986	0.03932349664608689	-0.022594865640538496	-0.16914343910337795	0.02777678982937789	0.1006009211402909	0.08300766517253401	0.1877770084661813	-0.055367298956805915	0.043250676340572836	0.01748057907095356	0.1608940974862831	0.05271521904851926	0.1712991442165432	-0.09429583468440123	0.10383885944738584	-0.0221615273373313	0.00609739885271624	0.059181267788278945	0.15341014899920496	0.032664037500943426	0.11098119683219482	0.055407979035497185
rs12447542	0.10918289735304752	-0.004147720365125979	0.05872661147819117	0.17136773874968086	0.14093561914415279	0.030571152681202255	0.08310829500320754	-0.0392112926265406	0.14241131164305865	0.07927751731757458	0.02601143639658685	-0.05321930913643488	0.009159517223134872	-0.09790899065520618	0.00753568512034228	0.026275286062484436	0.032251073662949506	-0.020863494197484022	0.047857629895205575	-0.08543586098397826	-0.03666924880388675	0.014403664118110227	0.007546867333450931	0.03137288044698465	-0.14693001941952188	0.03950634797129629	-0.04782405852707851	0.011546339102845598	-0.0076011660709124525	0.0008967394823810766	0.03618870988193455	0.07661789278908673	-0.03163614230558906	0.06338756781437145	0.006344178160286568	0.10793642166836886	-0.04923249742748917	-0.027263230986550424	0.015575964128197476	0.02588407607101513	0.018995245032295455	0.09476979464128608	0.1300235772432718	0.009799774221359237	-0.049185390133433884	0.048452053246975234	0.07133936147732751	-0.07645265202444819	0.02281581208600314	0.0619575057108384	0.01942449459803389	0.051801385143819725	-0.008691073474468307	0.03824793579610954	0.16292866693102148	0.02431148615239975	-0.0012182263870222391	-0.17600371613424814	0.0567992189042486	0.012669046405093986	0.016819865620306667	0.14077252234407842	0.015914916036213676	-0.05894429257173022	0.03961038245928821	-0.002318175372300867	0.028792424293549695
rs7191183	-0.046510169836919746	-0.012850601334467172	0.09209543170256748	0.006772668728957372	-0.0395048351180789	0.059252748951812234	0.0309227650332308	0.11404440767696473	-0.06597713177662073	0.10410969805421375	0.0238065640279669	-0.036950952589102706	-0.019789485730088277	0.06769239937694152	0.04630734898805911	0.1719516668233273	-0.0867463865594162	0.05291310715771164	-0.09315974507356077	0.07059936773615354	0.06459060533378057	0.015798876245375886	0.08003468756936491	-0.043691907598258826	-0.015204609005139844	0.0022351983951463335	0.0444477744802248	0.11836842959486858	-0.004413063372641753	0.09164683913337586	0.022996458681364233	0.13509841210462994	-0.11281810561501107	-0.08572968587983475	-0.08439798655983982	-0.010717628067680944	0.14207357070904847	0.10816471027311099	-0.10612000638662902	-0.02769428323403572	0.14191874876516108	-0.11823421693205731	-0.17858877694540312	0.06692801648868311	0.010695649356938702	0.05127094631521341	0.08971992161604145	-0.06340201462944645	-0.036359674540406554	0.14848479462749423	-0.021754562566573734	-0.07134293857806856	0.11085792724576554	0.06606320031190145	0.14014339955446195	0.08221564436610937	-0.010684081861474019	-0.01620086799156315	-0.008361175752158945	0.07856021270669653	-0.017102819334778436	-0.060235348453310834	0.018878697689867843	0.14109315373390274	-0.12310156063910908	-0.00831410588616169	0.06026115692583385
rs728583	-0.06623909225719077	0.08296837569203358	0.0209545276278705	-0.13047945727880195	0.09837893641469232	0.12628136442963592	0.040544957629826704	0.02798628461729075	0.06712344354607011	-0.18994773521636873	0.051270543287960185	0.016876069523425512	0.041578356297917625	0.021567304702115788	0.0438684514504817	-0.07790009690331276	0.06180758659750647	-0.0009753291067993158	-0.03781443605723428	0.032565262516122476	-0.08921252784187853	0.06823441618471306	-0.22639276056816143	-0.2532337664829551	-0.049537882596810495	0.1366530393203948	0.13017360521703725	-0.0499158919180137	0.022939789605102744	-0.006067461333983443	0.006235004707729049	-0.10466095351433385	0.11067125479091683	0.14572855341626767	0.026081535876496306	0.08294588197048867	0.12000675393494654	0.10828464611601114	-0.04696352056836373	-0.08354018308075932	-0.340256492584281	-0.1310192575505364	-0.006360992589036681	-0.03608539697172783	-0.02463485133070515	0.06520747946947207	-0.23982414750006986	0.0459925310542012	0.013713020415783123	-0.14398912650272874	0.012671134292970877	-0.0885705133094235	-0.012194916003405994	-0.3833460094803339	-0.09732848337018246	0.09098170152556487	0.05217367192794484	-0.0017258814467516024	-0.008567594079490794	-0.06630489076200416	0.2146547996497128	-0.16914766252269714	-0.01873226451195044	0.027143648243481606	0.09787221303376388	0.03370539838876546	0.07574953397206795
rs7499750	-0.03926279087140892	0.010239901335684927	-0.07889063771680414	-0.0063939310633789595	0.029677788545430128	-0.08510754693974096	0.09414288455187295	-0.05879927612621533	-0.1316354369205946	-0.08009239380310283	-0.03955917851378872	0.050500014598099593	-0.020872690939859974	0.19023743086477213	-0.001978923427991158	-0.06091308910602255	0.04831140854415093	0.06499561882090953	0.06935565552943077	-0.09845580786142925	0.011156291688192948	-0.030591680358620817	-0.0012685533268662701	0.0013415165824886956	-0.11858640475293085	0.008472514010886832	-0.05248008019784694	-0.03519694880534653	0.017566815163016346	0.07929154546163587	-0.07166891101321815	-0.09401293690593948	0.10238778827948283	0.09113524701694986	0.11898408634522328	0.0251918170379903	-0.055215017809021515	-0.07076965446518393	0.04888712392365839	0.04605326134625094	0.04789278797257371	0.07826967201799556	0.13345956984771126	-0.014520110234845326	0.14529361898364682	-0.013408345421068368	-0.10577318255113898	0.06730217644465741	0.04293451231974622	-0.16000986626459188	0.06832857390769777	-0.028251822692753805	0.035894785680622786	0.09929815692229879	-0.1239322827763664	-0.024431462457076204	-0.06152536766471487	-0.1616548826948816	0.18628894387749712	0.06347456437208701	0.04445268498739528	0.019613710453856126	0.017059682100780106	-0.06873453554014558	0.17248716731365776	0.1512906871082679	-0.0416411437589123
rs198160	-0.05911845069779434	0.11031089181424376	0.09551280217720931	0.0215386037419198	0.006479275506836256	0.1601632627154014	0.12852212596572032	0.1563110174929465	0.09064202423883595	-0.06970245910063935	0.06209227124976178	0.061420494760201796	0.1001135083578294	-0.012838650809975373	0.12934386172971887	0.09851186952195688	0.09565724672718696	-0.06645870306530313	0.08099187087190375	-0.07342179320583266	0.07030715390952487	0.10636738362765051	-0.04437451968172436	-0.020101946072560443	-0.048056952295991655	0.06517936907148592	-0.029929489663562188	0.037476313259802094	0.08002156929480414	0.07506787278621262	0.007480813201751534	0.05781220724066246	0.020822700921865063	0.07684752657178262	0.18377657129406924	0.1824338499182769	-0.08282294685428628	-0.11772425154861588	0.12275231347050543	0.05655650673826694	-0.1197368800781303	0.08112707447038356	0.10040289437785624	0.08378796030234023	0.09035511438573958	0.0856194428947186	-0.08308906194587916	0.008703076047341985	0.1292388688278028	-0.05706185187912835	0.09107726109905148	0.012705237392916466	-0.002572749850097163	-0.04526961315688351	-0.09402635089162104	0.16389541249726863	0.12850064047633075	-0.0812416940376487	0.15368548489139564	0.06667360681518739	0.11825982457548977	0.10952858616888052	0.087557522684826	0.04221656810678335	0.12581682124102347	0.13034955332572495	0.06813396969685583
rs11646127	0.12936998097947858	-0.0023385176609103378	0.08584308094037604	0.016440624316425064	-0.15143852463826954	0.09709966540146077	-0.007023380685656566	0.06879496743717191	0.08206185205044735	-0.15211367850216978	0.05212315577691272	0.079428919002203	0.027437645670388325	-0.16622687910825684	0.010052056203882827	-0.021770634336772433	-0.051792759432570376	-0.1054490150055517	-0.01838174586085866	0.12540086244560184	0.15068979219028972	0.0330801176983632	-0.10589981703497348	-0.03123538040895711	0.010203831759309478	0.14123453904829666	-0.048649941301718444	-0.05555741687913035	-0.008370290024695172	-0.012478844056742997	0.10759661130516468	0.06010324389718117	-0.07929187948769721	-0.040663960082719025	-0.06838880592553831	0.002763205113726429	0.11035403587720811	0.14844641447780318	0.02423259587625459	0.0022772612833829703	-0.06103291763955505	-0.009935208978311363	-0.06760309761461061	0.05087765922773521	-0.1434503791790066	0.07011936003590603	-0.0016453291533844558	-0.048582366897622575	-0.04591032970102175	-0.11365237338020655	-0.003908860933602334	0.166296327914363	-0.17164029587241922	-0.09414930902533643	-0.10925508968182036	0.07337113609829574	-0.001915029555267882	0.21971723761169706	-0.06091437857168857	0.04772404069563104	-0.007669648538542687	-0.010577206226995942	-0.0004045329415579934	0.10340856546102244	-0.046663775502878264	-0.016935902687119826	-0.00637550384340802
