	2101	2609	2611	2809	428	4295	4298	4322	436	469	491	492	493	495	498	506	520	521	527
1754	-0.19657565128251114	0.14683336314224	0.1799892838517781	-0.19657565128251114	-0.07341668157112	0.06633832605140093	0.0497537445385507	-0.19664575222379566	0.3063892148875214	-0.2830437652208189	-0.13975442502452556	-0.029608354998535348	-0.18239136825234706	0.016580797022753006	-0.16104993117121408	-0.05565339114718589	0.15038256756792773	0.12916612646673734	-0.2689167348353207
1769	-0.11488530221596084	0.21436447142998497	0.13146108468910675	-0.11488530221596084	-0.0888250572223694	0.013032866202585883	0.0011848060184169336	0.048577046755092834	0.289678866339545	-0.03790326909132443	-0.04856666819903061	-0.018952442240369523	-0.14570000459709181	-0.1693886459302402	-0.008290691912492034	-0.2226500670716418	0.30318307005500184	0.3045969730409196	-0.08293932997905251
1770	0.12081324197319389	-0.04737572669751067	0.06632601737651492	0.12081324197319389	0.1137017440740256	0.30095561644307306	0.25593076043977886	0.4265512673996309	0.09816022338839517	0.013029896329641029	-0.3079990242445019	-0.1883492422937584	-0.009476893053677	-0.44066924004305347	0.156346548435898	0.043821615229993685	-0.031977935438103434	0.01066734292582301	-0.008294341125022878
2427	-0.22974279922045857	0.646568089863151	0.5044652129701511	-0.22974279922045857	-0.08999848869890043	-0.13505161456603662	-0.14689824742270643	-0.15637555370804246	0.6247721240402109	0.30437384372273474	-0.2605701869652397	-0.1527856176528356	-0.0071064596445064914	-0.2084531766188526	0.0047369649323805605	0.4914286190242363	-0.10065405449894009	0.05806795568046939	0.2807751650837313
2456	-0.3078895742979092	0.2391962851188102	0.13025540278747097	-0.3078895742979092	0.11841400253406456	-0.12556897431158037	-0.13741510396361625	-0.08529213349465839	0.17713126485684827	0.2996237347316617	-0.17765393011592231	-0.37780260978131147	0.004737438136424598	-0.2913482905426593	-0.10184039765238537	0.3256315439463002	0.1338049616942979	0.2689973459444898	0.22389983649284428
2459	0.034433640785171256	0.20540587778652114	0.19590734008541028	0.034433640785171256	0.015435123764305074	-0.2506226933866322	-0.2031112823180764	-0.18648228844408185	0.2315988635402046	-0.09499667692237007	-0.029688326424271494	0.11875081902617894	0.10806550818434821	0.14131441519336427	0.2386607516489456	0.3704352161597088	0.13772591370040457	0.16990928954894519	-0.13541189829766895
2460	-0.15394478714895457	0.1349919628888336	0.13025540278747097	-0.15394478714895457	-0.06631184141907616	-0.080553681633844	-0.026061485234478925	-0.11135361872913732	-0.07659730372188035	-0.04855562499604005	-0.01421231440927379	0.07935039139607483	0.04737438136424599	0.0971160968475531	0.009473525363012561	0.11012266758911247	0.06986276761029714	0.23581705657688742	-0.08884914146541434
2461	-0.19657565128251114	0.18946240405450324	0.10894088233133936	-0.19657565128251114	-0.0023682800506812825	0.1990149781542029	0.20138420408461	0.21559955966705313	-0.18670592782208326	-0.029607088412219575	-0.10422363900134111	-0.47491801417650775	0.20134112079804536	-0.24634327005232973	0.026052194748284605	0.19537892636778012	0.14564610874689074	0.2405570979151162	-0.04857086400109318
2761	-0.1231681037329378	0.23922014589342877	0.28185343922097056	-0.1231681037329378	-0.14447949405444702	-0.22035987538880128	-0.19192634308056875	-0.2985520892364403	0.11730082522694053	-0.022503626702577988	0.13266145177298433	-0.14805649568702156	0.35297421989597627	0.1800379737825456	0.14922289490721313	0.3043478500411212	0.1314498496286554	0.20976751917689895	-0.0414670329110116
2774	0.10539521963243877	-0.05802410128007941	-0.1432840052018288	0.10539521963243877	0.1456523358663218	0.03198522936511071	0.09595568809533216	-0.008292466872436139	-0.37461629309153766	0.09474470228568473	0.33518088046463196	0.22739700780465194	0.12436039734553485	0.3659696643899393	0.02723696687130443	-0.2628790856256233	0.10183604217929552	0.11613346199628916	0.06989613639771336
2779	0.4061860711677134	-0.07697074659602371	-0.2474905544395224	0.4061860711677134	-0.04381411729312118	-0.25469719679625197	-0.2049423955616354	-0.16703397557335595	-0.45121515174284266	-0.03552926335713174	0.47967581833277767	0.1776539123473844	0.2996493383659079	0.12672735951366834	0.07223717300650295	-0.19183068410518453	0.007104840152043881	0.10428310873136168	-0.048571891395021174
2780	0.5032917791436688	-0.031972463970656	-0.24512222377502926	0.5032917791436688	-0.11486403722791236	-0.29260561678453134	-0.2570664730455196	-0.21915805305724018	-0.3434980067644448	0.10895640762853737	0.3849250394028461	0.24397803962374118	0.20726732890922483	0.19778943026899623	0.12197424294540667	-0.1515699232436026	-0.09946776212861419	0.08058240220150673	0.07463485750942274
3151	0.13863816214638625	-0.18839775751947216	-0.11967404722935027	0.13863816214638625	0.2334236366750694	-0.5701585967946916	-0.5749000404270732	-0.26670620432183967	0.07664389204902329	-0.06873194205034598	-0.10073422361159406	0.0	0.05925542565387888	0.13628553342902386	0.027253655806554596	-0.03317626365366389	0.10663799031534835	0.021343575364061326	-0.09127585186716082
3152	0.6039888191684442	-0.3363245186069448	-0.23211128748929996	0.6039888191684442	-0.009473930101604052	0.01658599057560943	0.035541408376305886	0.2677452764348378	-0.046680272442260744	-0.30675558925634594	0.063960859106957	0.05329957825968321	0.25110559501249785	0.07580438143329285	-0.01894866883665722	0.09828992761251265	-0.18592191126704205	-0.1623601127149347	-0.29737362112131627
3174	-0.063946296200335	0.7981103770794955	0.7033791750523218	-0.063946296200335	-0.2439328452201729	0.23692259304071778	0.24876872269275352	0.2440302708319392	0.38059285286809275	-0.17408967986385093	-0.12080467247882723	0.020133681399004063	0.00947487627284923	0.052111076357223576	0.028420576089037784	0.09117683230496407	0.15038256756792773	0.387498379400212	-0.14571259200327952
3179	-0.23920651541606783	0.8336345778399702	0.7578496162179258	-0.23920651541606783	-0.14683336314224	0.1634765891980952	0.14689200768524496	0.09950748907710141	0.36623085842024006	-0.09118983230963616	0.04500566229603368	0.12672375939373137	0.22976574961659302	-0.00236868528896474	0.14683964312669515	0.09117683230496407	0.041444014684074555	0.3424679866870375	-0.1291274189297355
3519	-0.026052194748284605	0.07104840152043868	0.06631184141907616	-0.026052194748284605	0.22735488486540395	0.14215355582443054	0.14452278175483782	0.10187671500750861	-0.05266064630879272	0.2072496188855368	-0.21792215427553155	-0.12672375939373137	-0.11132979620597805	-0.06869187337997654	0.23446975273456142	0.05328516173666732	-0.015393491168370556	-0.15049631248876735	0.18836017990667844
3626	-0.25950959049626243	0.17655387775065962	0.2358001454522232	-0.25950959049626243	-0.4206485006811018	-0.2169271741912373	-0.2358934845030394	-0.2643429499707428	0.15329181862225	-0.31522786063968733	-0.354357485534412	-0.4005695825827405	-0.22636213958887197	-0.026072753785916135	-0.342457861431141	-0.12085983915578039	0.18958406142083203	0.10909243365451216	-0.3034710915400459
3646	-0.04263086413355668	0.48312913033898347	0.5162850510485216	-0.04263086413355668	-0.3789248081090066	-0.04738451860814353	-0.04027684081692203	-0.3387993080482264	0.4164978389877246	-0.11487550303941182	0.13027954875167644	0.2546318529874043	-0.02605590975033531	0.13738374675995313	-0.014210288044518874	0.031971097042000386	0.238007055757114	0.4514889374663017	-0.06278672663555945
3655	-0.15157640580820145	0.14683336314224	0.1799892838517781	-0.15157640580820145	-0.11367744243270198	-0.28430711164886124	-0.2582456264143823	-0.23455336711031047	-0.40692317602248895	0.17172111279087335	-0.03316206695497218	-0.2001524797900991	0.08764260552385504	-0.18002008196131788	0.004736762681506267	0.14801433815740922	0.10301797935755681	0.13864620914319514	0.13623535024696862
672	0.03197383067500952	-0.4298520156054866	-0.4511669915859233	0.03197383067500952	-0.16459898118226607	-0.1551875943270187	-0.12201772683727419	0.136233384332879	-0.2848520056095397	-0.17764631678565873	0.21437363732896964	0.33635807404438106	0.06750992998757611	0.22621425857112762	0.1432901300620796	-0.24630112527085427	0.07341668157112	-0.04266127175373885	-0.21561181058277676
722	0.12079260577570505	-0.07578820100960039	-0.06157791332030028	0.12079260577570505	0.026052194097050126	0.09714238942469304	0.15637555370804246	-0.09477306285335906	-0.2752827366460714	-0.005921670111337206	0.028425838578026167	0.22384869563089863	0.009475279526008712	0.18950288783532057	0.033158754526664155	-0.09354906241666194	-0.27591052586180037	-0.24530748624198292	0.005923526689530168
724	-0.2688170208602651	-0.1432840052018288	-0.07460241593153066	-0.2688170208602651	-0.15038899719530782	0.18835746181676305	0.16703397557335595	-0.07463220185192498	0.1663631461333026	0.0	-0.1646294783907557	-0.10185490974583374	-0.18831717312323845	0.17173333765870943	-0.04144755828241976	0.22025004471335996	0.11604572248338328	-0.149314451138086	0.014216163335128144
727	-0.04736762681506292	0.38129308815968754	0.4239221290719506	-0.04736762681506292	0.030787640658856745	-0.0023692259304071697	0.00947690372162873	-0.06633832605140093	0.1723439333742307	0.041449923777107364	0.09948620086491657	0.12672375939373137	0.20844727800268223	0.08053529982480011	0.05447277083732237	0.0722309970208157	0.4866711438615618	0.5913201569440578	-0.0059232760976943135
731	-0.1634183125119672	0.25103768537221666	0.23209144496676642	-0.1634183125119672	0.035524200760219365	-0.1705842669893167	-0.15873813733728093	-0.045015292677736345	0.2465475713548023	0.0035528506094663808	0.08527388645564274	-0.01539634459923839	0.19186624452519624	0.01421211173378827	-0.09947201631163219	0.2593211204517809	0.285371643967485	0.3709082347164108	-0.053309484879248636
734	0.026052194748284605	0.26998392577766717	0.21314520456131614	0.026052194748284605	-0.12551884268610844	0.15399968547646647	0.18479962257175978	0.0	0.06462897501533652	-0.24514669205317788	0.16817905384307322	0.10303707539490312	0.07816772925100583	0.0663231880910119	0.17526021921573284	-0.14327787933637223	0.14327787933637223	0.15523635382699622	-0.2618088035180876
735	-0.0710514402225944	0.46655116998421425	0.48076085028830157	-0.0710514402225944	0.054470441165669695	-0.07818445570343685	-0.0710767779122153	0.05212297046895792	0.10532129261758545	0.07934699694474842	0.12080467247882723	0.046189033797715176	0.2605590975033529	0.06158581751308244	0.07578820290410071	0.21906122047296583	0.4203607203670423	0.5794700535984856	0.06515603707463721
736	0.06395631252730832	0.3363484893558677	0.3837215160257082	0.06395631252730832	-0.09474605333968106	0.34714574117934827	0.35425452768814053	0.16942607845954533	0.059850646976960666	-0.10778666080299461	0.10660901100039866	-0.0035535579285285997	0.16583623933395336	-0.08054788157154066	0.05448130326400341	0.005921502117919485	0.13382594786497984	0.2702242651284923	-0.12677781700324048
737	-0.22025946469004257	0.6607501341400746	0.5707554922141937	-0.22025946469004257	-0.009473120202725194	0.08292290756425116	0.09003058535547272	-0.02369225930407177	0.10771495835889422	0.05329275914199515	0.1326482678198887	0.01539634459923839	0.23687190682122988	0.03553027933447067	0.19894403262326438	-0.041444014684074555	0.43457009683015346	0.4183086480986995	0.03435500136662688
738	-0.25341680346058687	0.4381318093760385	0.4570780497814891	-0.25341680346058687	-0.09473120202725159	-0.09003058535547272	-0.05923064826017941	-0.13978432989402342	0.20585525375255334	0.09118983230963616	0.2629278165715652	-0.02487101819876969	0.31267091700402333	0.06869187337997654	0.06868305888184129	0.05328516173666732	0.6713930378820296	0.6292404876498873	0.008292586536771993
739	-0.009473525363012561	0.3031398464872053	0.26051080557494194	-0.009473525363012561	-0.03315592070953809	-0.2653533042056038	-0.2582456264143823	-0.13978432989402342	0.2489412370961111	-0.26883236278295347	0.26766525470798974	0.09829973859513746	0.5045371615292202	0.24871195534129434	0.1563131684897077	0.022498179399926262	0.26642580868333665	0.23581705657688742	-0.27365535571347627
742	-0.24868004077908035	0.6702232543428259	0.6086479730250971	-0.24868004077908035	-0.05920700126703226	0.2179687855974602	0.1776919447805383	0.18243039664135255	0.7348553825817252	-0.08645269816368108	-0.15159802036558714	-0.046189033797715176	-0.011843595341061485	-0.016580797022753006	0.014210288044518874	0.21432476165192854	0.11722735582066811	0.28084744929006195	-0.11965017717342465
745	-0.24868004077908035	0.6702232543428259	0.6086479730250971	-0.24868004077908035	-0.05920700126703226	0.2179687855974602	0.1776919447805383	0.18243039664135255	0.7348553825817252	-0.08645269816368108	-0.15159802036558714	-0.046189033797715176	-0.011843595341061485	-0.016580797022753006	0.014210288044518874	0.21432476165192854	0.11722735582066811	0.28084744929006195	-0.11965017717342465
753	-0.12789259240066997	0.38602964826105013	0.41918556897058873	-0.12789259240066997	-0.07578496162180125	-0.04027684081692203	-0.080553681633844	-0.02369225930407177	0.4619774880725903	-0.04381849085008494	-0.2155534352073191	-0.14093576979302838	-0.08527388645564274	-0.03553027933447067	-0.10184039765238537	0.26879403809385516	0.2711622675043737	0.17419651917991183	-0.03435500136662688
762	0.18118504049172054	-0.11012737589892622	-0.10065405324095404	0.18118504049172054	0.036709125299642084	0.08647858309826228	0.136233384332879	-0.1338641080836116	-0.28365514844311307	0.004737235114284242	0.06514116051432778	0.25582163378023354	0.013028232102865559	0.19305195888530788	0.03197383067500952	0.035524200760219365	-0.34340060734878725	-0.274928195746317	0.004738721111709372
764	-0.23210137139380854	0.622857653329172	0.6181210932278177	-0.23210137139380854	-0.33392748714606196	0.26061485234478937	0.2392918189711248	0.14926123361565216	0.5098508028987669	-0.13145547255025478	-0.19660368266162082	0.11488041739431727	-0.05448053856888289	0.1539645437827061	-0.08526172826711328	0.10064974994703828	0.2735304969148923	0.34009796601792297	-0.09358776234356977
765	0.07341982156334755	0.4618146098828514	0.4570780497814891	0.07341982156334755	-0.2818253260310736	0.28904556350967564	0.24876872269275352	0.14926123361565216	0.39495484731594555	-0.12198120425834452	-0.15633545850201178	0.03908302859806667	-0.042636943227821376	-0.009474741155858816	-0.0402624827928035	-0.1267002734627423	0.23563882634659536	0.3590581313708385	-0.08174121014818118
773	0.33175762739084214	0.13032784511868778	0.05213113804747514	0.33175762739084214	-0.24880770431749488	0.05452234512770806	0.009482146978731898	0.18490186608527096	0.18800289126139555	0.02488375487713825	-0.2772937097775195	-0.08176436545690781	-0.1730123146475122	-0.3341697008417159	-0.30569095666727597	0.26420450292925046	-0.12914031757528374	0.06165443130488533	0.017779626540935064
776	-0.3434152944092065	0.5589140919607845	0.45470976973080734	-0.3434152944092065	-0.36471512780491855	-0.09476903721628709	-0.06396910012099376	-0.18243039664135255	0.24176023987218467	-0.11487550303941182	0.16107289663843627	-0.03671436019818385	0.2581903784351405	-0.12080294973720021	0.009473525363012561	0.06749453819977862	0.3919419674408198	0.3993484827457843	-0.0959570727826475
778	-0.20131241396401744	0.23209144496676642	0.2652473656763046	-0.20131241396401744	-0.09709948207793291	0.016584581512850232	-0.02369225930407177	-0.27956865978804696	0.42367883621165026	-0.2996237347316617	-0.12791082968346412	0.034345691798301006	-0.22029087334374375	0.021318167600682385	-0.12789259240066997	0.001184114705259268	0.17406486167311316	0.10783594044470736	-0.27602466615255383
779	-0.36593835371695665	0.574344736199244	0.5009233472418159	-0.36593835371695665	-0.33986997791584167	-0.06041911086348008	-0.0035540653449105926	-0.07463537224312244	0.13525035115236755	-0.14686054917968805	0.18121857741253625	-0.09949042755935238	0.2901866108893552	-0.119626243616467	0.06513465842858454	0.07341982156334755	0.3647307264759845	0.4124096896575455	-0.13979818713806305
780	-0.11133769358313947	0.10185781239964789	0.07580116271601704	-0.11133769358313947	-0.0639572310416394	0.30095561644307306	0.35545938949969264	0.4265512673996309	-0.3782759828138156	-0.11489999490683463	-0.027246067529321318	-0.03198383359705329	-0.0781843676928351	-0.14452055721842083	-0.056853290340326545	-0.06987771077215202	0.03434667139648151	0.13511967706042502	-0.13389436387537004
